{"learner":{"attributes":{},"feature_names":["ema ","rsi ","volatility "],"feature_types":["float","float","float"],"gradient_booster":{"model":{"cats":{"enc":[],"feature_segments":[],"sorted_idx":[]},"gbtree_model_param":{"num_parallel_tree":"1","num_trees":"50"},"iteration_indptr":[0,1,2,3,4,5,6,7,8,9,10,11,12,13,14,15,16,17,18,19,20,21,22,23,24,25,26,27,28,29,30,31,32,33,34,35,36,37,38,39,40,41,42,43,44,45,46,47,48,49,50],"tree_info":[0,0,0,0,0,0,0,0,0,0,0,0,0,0,0,0,0,0,0,0,0,0,0,0,0,0,0,0,0,0,0,0,0,0,0,0,0,0,0,0,0,0,0,0,0,0,0,0,0,0],"trees":[{"base_weights":[5.698733E-8,1.5640943E-1,-4.6921116E-1,-1.269632E-2,9.469009E-1,-3.1503108E-1,-3.7111357E-1,6.6285944E-1,-1.4017433E-1,4.528487E-1,3.1428576E-1,-7.774436E-1,-5.51424E-2,6.140594E-2,2.86561E-1,-2.3557748E-1,-1.31354015E-2,-5.8778614E-2,2.1832062E-1,3.3587802E-2,-4.2824426E-1,-2.3880081E-1,9.666859E-2],"categories":[],"categories_nodes":[],"categories_segments":[],"categories_sizes":[],"default_left":[0,0,0,0,0,0,0,0,0,0,0,0,0,0,0,0,0,0,0,0,0,0,0],"id":0,"left_children":[1,3,5,7,9,11,-1,13,15,-1,17,19,21,-1,-1,-1,-1,-1,-1,-1,-1,-1,-1],"loss_changes":[4.9860067E0,6.823394E0,1.6210933E0,3.7926896E0,2.7261267E0,1.8182544E0,0E0,7.413535E-1,2.2642007E0,0E0,1.3019266E0,3.3372285E0,3.3292992E0,0E0,0E0,0E0,0E0,0E0,0E0,0E0,0E0,0E0,0E0],"parents":[2147483647,0,0,1,1,2,2,3,3,4,4,5,5,7,7,8,8,10,10,11,11,12,12],"right_children":[2,4,6,8,10,12,-1,14,16,-1,18,20,22,-1,-1,-1,-1,-1,-1,-1,-1,-1,-1],"split_conditions":[1.4134364E3,1.4059513E3,1.4185334E3,1.3406908E3,1.7031739E-3,1.4159531E3,-3.7111357E-1,1.9290259E-3,7.966496E-4,4.528487E-1,1.4111799E3,1.4951588E-3,1.2320288E-3,6.140594E-2,2.86561E-1,-2.3557748E-1,-1.31354015E-2,-5.8778614E-2,2.1832062E-1,3.3587802E-2,-4.2824426E-1,-2.3880081E-1,9.666859E-2],"split_indices":[0,0,0,0,2,0,0,2,2,0,0,2,2,0,0,0,0,0,0,0,0,0,0],"split_type":[0,0,0,0,0,0,0,0,0,0,0,0,0,0,0,0,0,0,0,0,0,0,0],"sum_hessian":[6.593939E1,4.9954086E1,1.5985308E1,4.1961433E1,7.992654E0,1.4486685E1,1.4986227E0,5.9944906E0,3.596694E1,3.496786E0,4.4958677E0,4.4958677E0,9.990817E0,2.9972453E0,2.9972453E0,3.7465565E0,3.2220387E1,2.2479339E0,2.2479339E0,2.2479339E0,2.2479339E0,2.9972453E0,6.993572E0],"tree_param":{"num_deleted":"0","num_feature":"3","num_nodes":"23","size_leaf_vector":"1"}},{"base_weights":[-2.373641E-3,1.1725161E-1,-4.1650254E-1,-6.3867113E-3,6.129941E-1,8.142418E-2,-5.262442E-1,7.1979254E-2,-7.859425E-1,3.7940207E-1,1.6755518E-1,-3.1799766E-1,-3.0892453E-1,-4.5064814E-2,1.6029564E-1,-7.460342E-2,-2.818928E-1,1.2153995E-1,-1.7201032E-1,1.4562264E-1,-1.8022321E-1],"categories":[],"categories_nodes":[],"categories_segments":[],"categories_sizes":[],"default_left":[0,0,0,0,0,0,0,0,0,0,0,0,0,0,0,0,0,0,0,0,0],"id":1,"left_children":[1,3,5,7,9,-1,11,13,15,-1,17,-1,19,-1,-1,-1,-1,-1,-1,-1,-1],"loss_changes":[3.33869E0,3.2098134E0,1.2830019E0,2.6745203E0,2.821897E0,0E0,1.222847E0,4.174575E0,9.6502304E-2,0E0,1.5279597E0,0E0,2.8204408E0,0E0,0E0,0E0,0E0,0E0,0E0,0E0,0E0],"parents":[2147483647,0,0,1,1,2,2,3,3,4,4,6,6,7,7,8,8,10,10,12,12],"right_children":[2,4,6,8,10,-1,12,14,16,-1,18,-1,20,-1,-1,-1,-1,-1,-1,-1,-1],"split_conditions":[1.4140223E3,1.4059513E3,1.0321593E-3,1.4031598E3,1.4951588E-3,8.142418E-2,1.4159531E3,1.9335693E-3,1.4044939E3,3.7940207E-1,1.4133097E3,-3.1799766E-1,1.4162333E3,-4.5064814E-2,1.6029564E-1,-7.460342E-2,-2.818928E-1,1.2153995E-1,-1.7201032E-1,1.4562264E-1,-1.8022321E-1],"split_indices":[0,0,2,0,2,0,0,2,0,0,0,0,0,0,0,0,0,0,0,0,0],"split_type":[0,0,0,0,0,0,0,0,0,0,0,0,0,0,0,0,0,0,0,0,0],"sum_hessian":[6.540768E1,5.130468E1,1.4102995E1,4.1853516E1,9.451163E0,1.7376037E0,1.2365392E1,3.8855206E1,2.9983091E0,3.0905335E0,6.36063E0,2.4559312E0,9.90946E0,2.6699038E1,1.2156169E1,1.2492955E0,1.7490137E0,5.1594496E0,1.2011801E0,2.4841666E0,7.425294E0],"tree_param":{"num_deleted":"0","num_feature":"3","num_nodes":"21","size_leaf_vector":"1"}},{"base_weights":[-3.6480715E-3,3.177592E-2,-2.8323603E-1,-8.153343E-2,2.9034308E-1,-3.4474402E-3,-3.2819563E-1,1.1393698E0,-1.6877323E-1,2.644077E-1,-1.54472515E-2,1.0884712E-1,4.2286387E-1,-3.9462757E-1,2.3034863E-2],"categories":[],"categories_nodes":[],"categories_segments":[],"categories_sizes":[],"default_left":[0,0,0,0,0,0,0,0,0,0,0,0,0,0,0],"id":2,"left_children":[1,3,-1,5,7,9,-1,11,13,-1,-1,-1,-1,-1,-1],"loss_changes":[2.2149618E0,1.9037648E0,0E0,3.5854144E0,7.8994474E0,1.8797195E0,0E0,9.715519E-1,3.959495E0,0E0,0E0,0E0,0E0,0E0,0E0],"parents":[2147483647,0,0,1,1,3,3,4,4,5,5,7,7,8,8],"right_children":[2,4,-1,6,8,10,-1,12,14,-1,-1,-1,-1,-1,-1],"split_conditions":[1.4185334E3,1.9335693E-3,-2.8323603E-1,1.8212845E-3,2.3648306E-3,6.101256E-4,-3.2819563E-1,2.0322264E-3,2.519753E-3,2.644077E-1,-1.54472515E-2,1.0884712E-1,4.2286387E-1,-3.9462757E-1,2.3034863E-2],"split_indices":[0,2,0,2,2,2,0,2,2,0,0,0,0,0,0],"split_type":[0,0,0,0,0,0,0,0,0,0,0,0,0,0,0],"sum_hessian":[6.458438E1,6.317118E1,1.4132047E0,4.4399216E1,1.8771963E1,4.215165E1,2.2475674E0,6.0683427E0,1.270362E1,1.2775828E0,4.0874065E1,2.1710842E0,3.8972585E0,1.4721811E0,1.1231439E1],"tree_param":{"num_deleted":"0","num_feature":"3","num_nodes":"15","size_leaf_vector":"1"}},{"base_weights":[-4.6799295E-3,2.5011988E-2,-2.4743778E-1,6.251302E-2,-1.966645E-1,-5.882039E-2,3.8276067E-1,1.1151922E-3,-2.6468155E-1,2.8033724E-1,6.5412256E-3],"categories":[],"categories_nodes":[],"categories_segments":[],"categories_sizes":[],"default_left":[0,0,0,0,0,0,0,0,0,0,0],"id":3,"left_children":[1,3,-1,5,-1,7,9,-1,-1,-1,-1],"loss_changes":[1.6003062E0,1.6635448E0,0E0,2.3993225E0,0E0,2.332375E0,3.3531327E0,0E0,0E0,0E0,0E0],"parents":[2147483647,0,0,1,1,3,3,5,5,6,6],"right_children":[2,4,-1,6,-1,8,10,-1,-1,-1,-1],"split_conditions":[1.4185334E3,4.658671E-3,-2.4743778E-1,1.9335693E-3,-1.966645E-1,1.8212845E-3,2.3648306E-3,1.1151922E-3,-2.6468155E-1,2.8033724E-1,6.5412256E-3],"split_indices":[0,2,0,2,0,2,2,0,0,0,0],"split_type":[0,0,0,0,0,0,0,0,0,0,0],"sum_hessian":[6.3871872E1,6.2575836E1,1.2960365E0,6.0168507E1,2.4073317E0,4.4228004E1,1.5940499E1,4.2031384E1,2.1966224E0,5.676117E0,1.0264382E1],"tree_param":{"num_deleted":"0","num_feature":"3","num_nodes":"11","size_leaf_vector":"1"}},{"base_weights":[-9.332313E-3,2.932218E-1,-8.371148E-2,-2.0638844E-1,7.2814393E-1,-3.8910133E-1,3.600466E-2,2.0359944E-1,-6.2451017E-1,-9.227152E-5,9.2305356E-1,7.042327E-2,-2.1982059E-1,-2.543588E-1,2.2728372E-2,3.0713862E-1,9.4229504E-2,3.3996977E-2,-1.547122E-1],"categories":[],"categories_nodes":[],"categories_segments":[],"categories_sizes":[],"default_left":[0,0,0,0,0,0,0,0,0,0,0,0,0,0,0,0,0,0,0],"id":4,"left_children":[1,3,5,7,9,-1,11,-1,13,-1,15,17,-1,-1,-1,-1,-1,-1,-1],"loss_changes":[1.4680157E0,2.9488559E0,7.6381154E0,2.9302783E0,1.0092487E0,0E0,1.33601E0,0E0,8.651539E-1,0E0,2.2375584E-2,1.2496972E0,0E0,0E0,0E0,0E0,0E0,0E0,0E0],"parents":[2147483647,0,0,1,1,2,2,3,3,4,4,6,6,8,8,10,10,11,11],"right_children":[2,4,6,8,10,-1,12,-1,14,-1,16,18,-1,-1,-1,-1,-1,-1,-1],"split_conditions":[1.0877905E-3,7.966496E-4,1.2164644E-3,6.6052866E-4,1.34513E3,-3.8910133E-1,1.4185334E3,2.0359944E-1,7.546284E-4,-9.227152E-5,1.4069894E3,4.658671E-3,-2.1982059E-1,-2.543588E-1,2.2728372E-2,3.0713862E-1,9.4229504E-2,3.3996977E-2,-1.547122E-1],"split_indices":[2,2,2,2,0,0,0,0,2,0,0,2,0,0,0,0,0,0,0],"split_type":[0,0,0,0,0,0,0,0,0,0,0,0,0,0,0,0,0,0,0],"sum_hessian":[6.3143585E1,1.1879357E1,5.126423E1,5.773079E0,6.1062784E0,3.720806E0,4.7543423E1,1.6523545E0,4.120724E0,1.4997107E0,4.606568E0,4.6375458E1,1.1679659E0,2.9644475E0,1.156277E0,3.368132E0,1.2384355E0,4.3964287E1,2.4111693E0],"tree_param":{"num_deleted":"0","num_feature":"3","num_nodes":"19","size_leaf_vector":"1"}},{"base_weights":[-1.2757444E-2,3.992524E-1,-5.8685478E-2,3.1874004E-1,3.823288E-2,-2.3138653E-1,-2.398886E-2,-2.1637276E-1,4.5663714E-1,2.1249883E-1,-5.087526E-2,-3.2873664E-2,2.1430123E-1,-1.801295E-1,-1.1595591E-3],"categories":[],"categories_nodes":[],"categories_segments":[],"categories_sizes":[],"default_left":[0,0,0,0,0,0,0,0,0,0,0,0,0,0,0],"id":5,"left_children":[1,3,5,-1,7,-1,9,-1,11,-1,13,-1,-1,-1,-1],"loss_changes":[1.2222385E0,1.5113807E0,1.4123429E0,0E0,1.9927188E0,0E0,1.1428919E0,0E0,6.601039E-1,0E0,1.4226676E0,0E0,0E0,0E0,0E0],"parents":[2147483647,0,0,1,1,2,2,4,4,6,6,8,8,10,10],"right_children":[2,4,6,-1,8,-1,10,-1,12,-1,14,-1,-1,-1,-1],"split_conditions":[1.3406908E3,1.5824775E-3,1.341895E3,3.1874004E-1,1.7939826E-3,-2.3138653E-1,6.101256E-4,-2.1637276E-1,1.3229556E3,2.1249883E-1,7.546284E-4,-3.2873664E-2,2.1430123E-1,-1.801295E-1,-1.1595591E-3],"split_indices":[0,2,0,0,2,0,2,0,0,0,2,0,0,0,0],"split_type":[0,0,0,0,0,0,0,0,0,0,0,0,0,0,0],"sum_hessian":[6.2352573E1,5.481981E0,5.6870594E1,1.247425E0,4.2345557E0,1.6547921E0,5.52158E1,1.2470866E0,2.9874692E0,1.0578324E0,5.4157967E1,1.1141824E0,1.8732868E0,3.3400273E0,5.081794E1],"tree_param":{"num_deleted":"0","num_feature":"3","num_nodes":"15","size_leaf_vector":"1"}},{"base_weights":[-7.2677704E-3,2.71769E-1,-7.335749E-2,7.4372673E-3,8.407557E-1,-3.1226683E-1,1.8880252E-2,-3.2099974E-1,5.423886E-1,3.1789574E-1,8.05308E-2,4.0441874E-1,-3.7148885E-2,8.3938524E-2,-1.8723616E-1,2.5936973E-1,-2.9840643E-2,-6.829426E-2,1.8222557E-1,1.8880455E-2,-9.989112E-2],"categories":[],"categories_nodes":[],"categories_segments":[],"categories_sizes":[],"default_left":[0,0,0,0,0,0,0,0,0,0,0,0,0,0,0,0,0,0,0,0,0],"id":6,"left_children":[1,3,5,7,9,-1,11,13,15,-1,-1,17,19,-1,-1,-1,-1,-1,-1,-1,-1],"loss_changes":[1.181198E0,1.8393164E0,4.6334405E0,1.8234696E0,2.020688E-1,0E0,1.0558151E0,1.3482847E0,9.0134406E-1,0E0,0E0,9.335071E-1,1.2935776E0,0E0,0E0,0E0,0E0,0E0,0E0,0E0,0E0],"parents":[2147483647,0,0,1,1,2,2,3,3,4,4,6,6,7,7,8,8,11,11,12,12],"right_children":[2,4,6,8,10,-1,12,14,16,-1,-1,18,20,-1,-1,-1,-1,-1,-1,-1,-1],"split_conditions":[1.0877905E-3,9.4992213E-4,1.2164644E-3,1.3877379E3,1.3823105E3,-3.1226683E-1,1.3126966E-3,7.0549897E-4,1.4152113E3,3.1789574E-1,8.05308E-2,1.3441931E3,1.4134364E3,8.3938524E-2,-1.8723616E-1,2.5936973E-1,-2.9840643E-2,-6.829426E-2,1.8222557E-1,1.8880455E-2,-9.989112E-2],"split_indices":[2,2,2,0,0,0,2,2,0,0,0,0,0,0,0,0,0,0,0,0,0],"split_type":[0,0,0,0,0,0,0,0,0,0,0,0,0,0,0,0,0,0,0,0,0],"sum_hessian":[6.197015E1,1.1270971E1,5.069918E1,8.387498E0,2.883473E0,3.5174873E0,4.7181694E1,5.4446588E0,2.9428391E0,1.4698073E0,1.4136658E0,5.1977544E0,4.198394E1,1.8516273E0,3.5930316E0,1.7283354E0,1.2145039E0,1.2340287E0,3.9637258E0,3.1958755E1,1.0025184E1],"tree_param":{"num_deleted":"0","num_feature":"3","num_nodes":"21","size_leaf_vector":"1"}},{"base_weights":[-1.4557259E-3,2.4343464E-1,-5.8297753E-2,-1.3435474E-1,5.433752E-1,-2.6109228E-1,1.3900928E-2,3.8297918E-1,-5.9751797E-1,-5.35944E-3,6.9893414E-1,2.5649598E-1,-6.2453132E-2,1.4445633E-1,2.9452708E-2,-2.7228862E-1,2.1637019E-2,2.624514E-1,2.9683743E-2,7.1379095E-3,2.563539E-1,-3.095152E-1,-2.3709892E-4],"categories":[],"categories_nodes":[],"categories_segments":[],"categories_sizes":[],"default_left":[0,0,0,0,0,0,0,0,0,0,0,0,0,0,0,0,0,0,0,0,0,0,0],"id":7,"left_children":[1,3,5,7,9,-1,11,13,15,-1,17,19,21,-1,-1,-1,-1,-1,-1,-1,-1,-1,-1],"loss_changes":[8.7824523E-1,1.4199475E0,3.0129154E0,1.6814601E0,6.082907E-1,0E0,9.0495324E-1,5.020076E-2,8.1082404E-1,0E0,4.800043E-1,1.6056716E0,2.2288814E0,0E0,0E0,0E0,0E0,0E0,0E0,0E0,0E0,0E0,0E0],"parents":[2147483647,0,0,1,1,2,2,3,3,4,4,6,6,7,7,8,8,10,10,11,11,12,12],"right_children":[2,4,6,8,10,-1,12,14,16,-1,18,20,22,-1,-1,-1,-1,-1,-1,-1,-1,-1,-1],"split_conditions":[1.0877905E-3,7.966496E-4,1.2164644E-3,7.0549897E-4,1.34513E3,-2.6109228E-1,1.3470364E3,6.6052866E-4,1.3841907E3,-5.35944E-3,1.035652E-3,1.3438136E3,1.3682449E3,1.4445633E-1,2.9452708E-2,-2.7228862E-1,2.1637019E-2,2.624514E-1,2.9683743E-2,7.1379095E-3,2.563539E-1,-3.095152E-1,-2.3709892E-4],"split_indices":[2,2,2,2,0,0,0,2,0,0,2,0,0,0,0,0,0,0,0,0,0,0,0],"split_type":[0,0,0,0,0,0,0,0,0,0,0,0,0,0,0,0,0,0,0,0,0,0,0],"sum_hessian":[6.1072525E1,1.0886778E1,5.0185745E1,5.062447E0,5.824331E0,3.1952145E0,4.6990532E1,2.473157E0,2.58929E0,1.456086E0,4.3682446E0,1.0684388E1,3.6306145E1,1.3242527E0,1.1489043E0,1.5268233E0,1.0624666E0,3.0236752E0,1.3445693E0,8.439976E0,2.244413E0,1.2306246E0,3.507552E1],"tree_param":{"num_deleted":"0","num_feature":"3","num_nodes":"23","size_leaf_vector":"1"}},{"base_weights":[-3.1393599E-3,-4.889176E-2,2.7795726E-1,2.8553374E-2,-6.8900573E-1,7.709818E-1,-2.361421E-1,-4.8686784E-2,2.9254097E-1,1.329282E-2,-3.1387216E-1,6.922137E-2,2.8388792E-1,2.4226062E-2,-1.3927402E-1,1.3146858E-2,-9.8013826E-2],"categories":[],"categories_nodes":[],"categories_segments":[],"categories_sizes":[],"default_left":[0,0,0,0,0,0,0,0,0,0,0,0,0,0,0,0,0],"id":8,"left_children":[1,3,5,7,9,11,13,15,-1,-1,-1,-1,-1,-1,-1,-1,-1],"loss_changes":[8.0003995E-1,2.6689544E0,2.3895972E0,3.6032863E0,1.5677583E0,2.2493291E-1,4.0102282E-1,1.1953065E0,0E0,0E0,0E0,0E0,0E0,0E0,0E0,0E0,0E0],"parents":[2147483647,0,0,1,1,2,2,3,3,4,4,5,5,6,6,7,7],"right_children":[2,4,6,8,10,12,14,16,-1,-1,-1,-1,-1,-1,-1,-1,-1],"split_conditions":[3.8128188E-3,2.3648306E-3,4.4772783E-3,2.041967E-3,1.3887375E3,1.4029126E3,1.3975791E3,1.6858097E-3,2.9254097E-1,1.329282E-2,-3.1387216E-1,6.922137E-2,2.8388792E-1,2.4226062E-2,-1.3927402E-1,1.3146858E-2,-9.8013826E-2],"split_indices":[2,2,2,2,0,0,0,2,0,0,0,0,0,0,0,0,0],"split_type":[0,0,0,0,0,0,0,0,0,0,0,0,0,0,0,0,0],"sum_hessian":[6.015073E1,5.244125E1,7.709478E0,4.763362E1,4.807631E0,3.680337E0,4.029141E0,4.4917007E1,2.7166133E0,1.8617928E0,2.945838E0,1.4691439E0,2.211193E0,1.956727E0,2.072414E0,3.4334885E1,1.0582124E1],"tree_param":{"num_deleted":"0","num_feature":"3","num_nodes":"17","size_leaf_vector":"1"}},{"base_weights":[1.271995E-3,3.5005547E-2,-3.2303825E-1,2.973461E-1,-2.2336071E-2,-6.886841E-1,1.9679916E-1,2.3105592E-2,2.7758482E-1,-6.994121E-1,3.2543134E-2,-5.9025794E-2,-2.4033497E-1,-7.838534E-2,1.9315274E-1,-5.7300773E-2,-2.472855E-1,1.3342293E-1,-6.867881E-4],"categories":[],"categories_nodes":[],"categories_segments":[],"categories_sizes":[],"default_left":[0,0,0,0,0,0,0,0,0,0,0,0,0,0,0,0,0,0,0],"id":9,"left_children":[1,3,5,7,9,11,-1,13,-1,15,17,-1,-1,-1,-1,-1,-1,-1,-1],"loss_changes":[6.7328835E-1,8.446976E-1,2.5276062E0,1.7114775E0,1.7560744E0,1.02871895E-1,0E0,1.5856849E0,0E0,6.742489E-2,6.342878E-1,0E0,0E0,0E0,0E0,0E0,0E0,0E0,0E0],"parents":[2147483647,0,0,1,1,2,2,3,3,4,4,5,5,7,7,9,9,10,10],"right_children":[2,4,6,8,10,12,-1,14,-1,16,18,-1,-1,-1,-1,-1,-1,-1,-1],"split_conditions":[1.4172262E3,1.0877905E-3,1.9784379E-3,1.3877379E3,1.2164644E-3,1.0321593E-3,1.9679916E-1,9.4992213E-4,2.7758482E-1,1.3803665E3,1.2716538E-3,-5.9025794E-2,-2.4033497E-1,-7.838534E-2,1.9315274E-1,-5.7300773E-2,-2.472855E-1,1.3342293E-1,-6.867881E-4],"split_indices":[0,2,2,0,2,2,0,2,0,0,2,0,0,0,0,0,0,0,0],"split_type":[0,0,0,0,0,0,0,0,0,0,0,0,0,0,0,0,0,0,0],"sum_hessian":[5.950932E1,5.471059E1,4.7987313E0,9.062718E0,4.5647873E1,3.7097855E0,1.0889457E0,7.0295005E0,2.0332174E0,2.5419393E0,4.310593E1,1.2017348E0,2.5080507E0,5.217967E0,1.8115335E0,1.0000192E0,1.5419202E0,2.4418223E0,4.066411E1],"tree_param":{"num_deleted":"0","num_feature":"3","num_nodes":"19","size_leaf_vector":"1"}},{"base_weights":[2.8920015E-3,2.997825E-1,-3.0746507E-2,2.5885585E-1,-3.873531E-3,-1.9014029E-1,3.6641982E-4,-1.7600635E-1,3.4563363E-1,-9.986345E-2,1.1121452E-1,-4.0656667E-2,1.7776586E-1,-1.0478593E-3,-3.1204712E-1,3.8962373E-1,-1.723919E-2],"categories":[],"categories_nodes":[],"categories_segments":[],"categories_sizes":[],"default_left":[0,0,0,0,0,0,0,0,0,0,0,0,0,0,0,0,0],"id":10,"left_children":[1,3,5,-1,7,-1,9,-1,11,13,15,-1,-1,-1,-1,-1,-1],"loss_changes":[6.038261E-1,1.0552714E0,1.0206687E0,0E0,1.2197248E0,0E0,5.968115E-1,0E0,5.258466E-1,2.5528023E0,5.1837277E0,0E0,0E0,0E0,0E0,0E0,0E0],"parents":[2147483647,0,0,1,1,2,2,4,4,6,6,8,8,9,9,10,10],"right_children":[2,4,6,-1,8,-1,10,-1,12,14,16,-1,-1,-1,-1,-1,-1],"split_conditions":[1.3406908E3,1.5824775E-3,1.341895E3,2.5885585E-1,1.7939826E-3,-1.9014029E-1,1.6081835E-3,-1.7600635E-1,1.3229556E3,1.5768483E-3,1.6505633E-3,-4.0656667E-2,1.7776586E-1,-1.0478593E-3,-3.1204712E-1,3.8962373E-1,-1.723919E-2],"split_indices":[0,2,0,0,2,0,2,0,0,2,2,0,0,0,0,0,0],"split_type":[0,0,0,0,0,0,0,0,0,0,0,0,0,0,0,0,0],"sum_hessian":[5.853855E1,5.152363E0,5.338619E1,1.1599388E0,3.992424E0,1.6688222E0,5.1717365E1,1.2422755E0,2.7501485E0,2.721154E1,2.4505825E1,1.0856868E0,1.6644617E0,2.5592302E1,1.6192372E0,2.2146564E0,2.229117E1],"tree_param":{"num_deleted":"0","num_feature":"3","num_nodes":"17","size_leaf_vector":"1"}},{"base_weights":[3.910486E-3,-3.5967402E-2,2.4220236E-1,2.6255364E-2,-5.3756875E-1,6.464129E-1,-1.741129E-1,-3.67719E-2,2.6144096E-1,8.212846E-3,-2.4327952E-1,6.0386933E-2,2.3700136E-1,2.7892878E-2,-1.4163305E-1,4.707263E-2,-2.93106E-2,-7.62172E-2,8.9524105E-2],"categories":[],"categories_nodes":[],"categories_segments":[],"categories_sizes":[],"default_left":[0,0,0,0,0,0,0,0,0,0,0,0,0,0,0,0,0,0,0],"id":11,"left_children":[1,3,5,7,9,11,13,15,-1,-1,-1,-1,-1,17,-1,-1,-1,-1,-1],"loss_changes":[5.699266E-1,1.6203377E0,1.5590626E0,2.5218177E0,9.064921E-1,1.33304E-1,3.1550032E-1,5.399257E-1,0E0,0E0,0E0,0E0,0E0,3.7614033E-1,0E0,0E0,0E0,0E0,0E0],"parents":[2147483647,0,0,1,1,2,2,3,3,4,4,5,5,6,6,7,7,13,13],"right_children":[2,4,6,8,10,12,14,16,-1,-1,-1,-1,-1,18,-1,-1,-1,-1,-1],"split_conditions":[3.8128188E-3,2.3648306E-3,4.4772783E-3,2.041967E-3,1.3887375E3,1.4029126E3,1.4113088E3,1.0877905E-3,2.6144096E-1,8.212846E-3,-2.4327952E-1,6.0386933E-2,2.3700136E-1,1.3771747E3,-1.4163305E-1,4.707263E-2,-2.93106E-2,-7.62172E-2,8.9524105E-2],"split_indices":[2,2,2,2,0,0,0,2,0,0,0,0,0,0,0,0,0,0,0],"split_type":[0,0,0,0,0,0,0,0,0,0,0,0,0,0,0,0,0,0,0],"sum_hessian":[5.805927E1,5.0463345E1,7.595925E0,4.5737362E1,4.725982E0,3.5735645E0,4.0223603E0,4.3453545E1,2.2838173E0,1.8345232E0,2.8914592E0,1.4574381E0,2.1161263E0,2.9374955E0,1.084865E0,1.0021768E1,3.3431778E1,1.4681624E0,1.4693332E0],"tree_param":{"num_deleted":"0","num_feature":"3","num_nodes":"19","size_leaf_vector":"1"}},{"base_weights":[7.220411E-3,3.663543E-2,-2.5713998E-1,-3.2793988E-2,2.0048292E-1,-5.467653E-1,1.6987197E-1,4.599996E-2,-8.5148615E-1,1.9619258E-1,2.721266E-2,-6.414223E-3,-2.270164E-1,-1.958377E-2,9.544004E-2,-8.381248E-2,-3.1149027E-1,-1.896627E-1,4.617601E-2],"categories":[],"categories_nodes":[],"categories_segments":[],"categories_sizes":[],"default_left":[0,0,0,0,0,0,0,0,0,0,0,0,0,0,0,0,0,0,0],"id":12,"left_children":[1,3,5,7,9,11,-1,13,15,-1,17,-1,-1,-1,-1,-1,-1,-1,-1],"loss_changes":[4.62621E-1,6.131401E-1,1.7309426E0,2.5104911E0,1.2402318E0,5.2631366E-1,0E0,1.1077886E0,7.488084E-2,0E0,1.1523861E0,0E0,0E0,0E0,0E0,0E0,0E0,0E0,0E0],"parents":[2147483647,0,0,1,1,2,2,3,3,4,4,5,5,7,7,8,8,10,10],"right_children":[2,4,6,8,10,12,-1,14,16,-1,18,-1,-1,-1,-1,-1,-1,-1,-1],"split_conditions":[1.4170892E3,1.4052606E3,1.9784379E-3,1.4031598E3,1.333441E-3,1.0321593E-3,1.6987197E-1,1.3899502E3,1.4044939E3,1.9619258E-1,1.4459222E-3,-6.414223E-3,-2.270164E-1,-1.958377E-2,9.544004E-2,-8.381248E-2,-3.1149027E-1,-1.896627E-1,4.617601E-2],"split_indices":[0,0,2,0,2,2,0,0,0,0,2,0,0,0,0,0,0,0,0],"split_type":[0,0,0,0,0,0,0,0,0,0,0,0,0,0,0,0,0,0,0],"sum_hessian":[5.7280735E1,5.2320522E1,4.9602137E0,3.7310333E1,1.5010186E1,3.918E0,1.0422134E0,3.489566E1,2.414674E0,3.3826423E0,1.1627543E1,1.4332738E0,2.4847264E0,2.530728E1,9.588381E0,1.2086638E0,1.2060102E0,1.2310879E0,1.0396456E1],"tree_param":{"num_deleted":"0","num_feature":"3","num_nodes":"19","size_leaf_vector":"1"}},{"base_weights":[-8.712682E-4,2.686716E-1,-3.082934E-2,2.3239082E-1,-7.16047E-3,-1.5360683E-1,-5.4320274E-3,-1.19931854E-1,3.36731E-1,3.6937138E-1,-3.9991017E-2,-3.7695E-2,1.9365846E-1,-3.3636354E-2,2.4579532E-1,-2.0759623E-1,-3.1326057E-3],"categories":[],"categories_nodes":[],"categories_segments":[],"categories_sizes":[],"default_left":[0,0,0,0,0,0,0,0,0,0,0,0,0,0,0,0,0],"id":13,"left_children":[1,3,5,-1,7,-1,9,-1,11,13,15,-1,-1,-1,-1,-1,-1],"loss_changes":[4.7439566E-1,8.2571685E-1,6.4305395E-1,0E0,7.8190756E-1,0E0,6.7805487E-1,0E0,5.23515E-1,1.049592E0,9.134289E-1,0E0,0E0,0E0,0E0,0E0,0E0],"parents":[2147483647,0,0,1,1,2,2,4,4,6,6,8,8,9,9,10,10],"right_children":[2,4,6,-1,8,-1,10,-1,12,14,16,-1,-1,-1,-1,-1,-1],"split_conditions":[1.3406908E3,1.5824775E-3,1.341895E3,2.3239082E-1,1.9290259E-3,-1.5360683E-1,1.3443472E3,-1.19931854E-1,1.3229556E3,1.3438136E3,1.3451609E3,-3.7695E-2,1.9365846E-1,-3.3636354E-2,2.4579532E-1,-2.0759623E-1,-3.1326057E-3],"split_indices":[0,2,0,0,2,0,0,0,0,0,0,0,0,0,0,0,0],"split_type":[0,0,0,0,0,0,0,0,0,0,0,0,0,0,0,0,0],"sum_hessian":[5.6723045E1,4.8767776E0,5.1846268E1,1.0825933E0,3.794184E0,1.6386609E0,5.0207607E1,1.6957226E0,2.0984616E0,3.4207141E0,4.6786892E1,1.0777615E0,1.0207E0,2.0151217E0,1.4055924E0,1.0565217E0,4.573037E1],"tree_param":{"num_deleted":"0","num_feature":"3","num_nodes":"17","size_leaf_vector":"1"}},{"base_weights":[1.7377291E-3,1.1866101E-1,-5.75448E-2,2.38344E-2,2.6689798E-1,-6.904301E-1,1.5954725E-2,1.4268033E-1,-1.9939664E-1,-5.0613783E-2,-2.7186352E-1,2.7415606E-1,-6.506229E-2,6.9198124E-3,2.1725145E-1,-2.544482E-1,2.3743883E-2,-4.1978925E-2,1.7752817E-1,-1.073503E-1,1.7764784E-2],"categories":[],"categories_nodes":[],"categories_segments":[],"categories_sizes":[],"default_left":[0,0,0,0,0,0,0,0,0,0,0,0,0,0,0,0,0,0,0,0,0],"id":14,"left_children":[1,3,5,7,-1,9,11,13,15,-1,-1,17,19,-1,-1,-1,-1,-1,-1,-1,-1],"loss_changes":[4.0481338E-1,1.4149803E0,1.8146089E0,5.1978594E-1,0E0,3.0382693E-1,7.6497054E-1,8.644535E-1,1.3052326E0,0E0,0E0,1.229886E0,1.0397571E0,0E0,0E0,0E0,0E0,0E0,0E0,0E0,0E0],"parents":[2147483647,0,0,1,1,2,2,3,3,5,5,6,6,7,7,8,8,11,11,12,12],"right_children":[2,4,6,8,-1,10,12,14,16,-1,-1,18,20,-1,-1,-1,-1,-1,-1,-1,-1],"split_conditions":[1.3823105E3,1.38204E3,1.3830759E3,1.3470364E3,2.6689798E-1,6.97984E-4,1.4004507E3,1.34513E3,1.3682449E3,-5.0613783E-2,-2.7186352E-1,1.5216673E-3,1.4052606E3,6.9198124E-3,2.1725145E-1,-2.544482E-1,2.3743883E-2,-4.1978925E-2,1.7752817E-1,-1.073503E-1,1.7764784E-2],"split_indices":[0,0,0,0,0,2,0,0,0,0,0,2,0,0,0,0,0,0,0,0,0],"split_type":[0,0,0,0,0,0,0,0,0,0,0,0,0,0,0,0,0,0,0,0,0],"sum_hessian":[5.6416805E1,1.8643837E1,3.777297E1,1.7519941E1,1.1238971E0,3.056924E0,3.4716045E1,1.1668559E1,5.851382E0,1.4157605E0,1.6411636E0,7.7220216E0,2.6994022E1,1.0540099E1,1.1284597E0,1.1433574E0,4.7080245E0,3.5947225E0,4.127299E0,7.4840226E0,1.951E1],"tree_param":{"num_deleted":"0","num_feature":"3","num_nodes":"21","size_leaf_vector":"1"}},{"base_weights":[1.0702001E-3,-3.4542818E-2,2.148174E-1,1.668673E-2,-4.4574156E-1,5.548665E-1,-1.3775966E-1,-3.4029275E-2,2.3401436E-1,-2.873625E-1,-5.0012093E-2,2.1953629E-1,2.4453612E-1,5.996756E-2,-1.300316E-1,9.466931E-3,-5.6906965E-2,1.461912E-1,-1.6520488E-1,-2.166011E-2,1.2316654E-1,-4.102586E-2,6.949406E-2],"categories":[],"categories_nodes":[],"categories_segments":[],"categories_sizes":[],"default_left":[0,0,0,0,0,0,0,0,0,0,0,0,0,0,0,0,0,0,0,0,0,0,0],"id":15,"left_children":[1,3,5,7,9,11,13,15,-1,-1,17,19,-1,21,-1,-1,-1,-1,-1,-1,-1,-1,-1],"loss_changes":[4.4090348E-1,1.0538585E0,1.0681264E0,1.773942E0,1.0747076E0,2.0586455E-1,3.1024343E-1,4.4785318E-1,0E0,0E0,1.3927959E0,2.1328534E-1,0E0,1.5974732E-1,0E0,0E0,0E0,0E0,0E0,0E0,0E0,0E0,0E0],"parents":[2147483647,0,0,1,1,2,2,3,3,4,4,5,5,6,6,7,7,10,10,11,11,13,13],"right_children":[2,4,6,8,10,12,14,16,-1,-1,18,20,-1,22,-1,-1,-1,-1,-1,-1,-1,-1,-1],"split_conditions":[3.8128188E-3,2.3648306E-3,4.4772783E-3,2.041967E-3,2.519753E-3,4.182555E-3,1.4113088E3,1.6505633E-3,2.3401436E-1,-2.873625E-1,2.8232199E-3,1.4029458E3,2.4453612E-1,1.3771747E3,-1.300316E-1,9.466931E-3,-5.6906965E-2,1.461912E-1,-1.6520488E-1,-2.166011E-2,1.2316654E-1,-4.102586E-2,6.949406E-2],"split_indices":[2,2,2,2,2,2,0,2,0,0,2,0,0,0,0,0,0,0,0,0,0,0,0],"split_type":[0,0,0,0,0,0,0,0,0,0,0,0,0,0,0,0,0,0,0,0,0,0,0],"sum_hessian":[5.594596E1,4.8674553E1,7.271408E0,4.4135334E1,4.539219E0,3.4094038E0,3.8620045E0,4.2281654E1,1.8536768E0,1.3594095E0,3.1798093E0,2.295395E0,1.114009E0,2.7920709E0,1.0699337E0,3.0308718E1,1.1972938E1,1.5466522E0,1.6331573E0,1.1543775E0,1.1410173E0,1.395949E0,1.3961219E0],"tree_param":{"num_deleted":"0","num_feature":"3","num_nodes":"23","size_leaf_vector":"1"}},{"base_weights":[3.4914878E-3,2.5936377E-1,-2.4013778E-2,-7.334777E-2,4.8130897E-1,-1.2347318E-1,8.9876905E-2,-1.2091548E-1,8.787958E-2,4.9783174E-2,1.7833601E-1,-4.535684E-2,-2.7118233E-1,3.1631947E-1,-4.3529052E-2,-1.5296306E-1,4.4268756E-3,-4.789962E-2,5.5611063E-2],"categories":[],"categories_nodes":[],"categories_segments":[],"categories_sizes":[],"default_left":[0,0,0,0,0,0,0,0,0,0,0,0,0,0,0,0,0,0,0],"id":16,"left_children":[1,3,5,7,9,11,13,-1,-1,-1,-1,15,-1,-1,17,-1,-1,-1,-1],"loss_changes":[4.0249288E-1,4.4512248E-1,5.9735304E-1,4.9104747E-1,2.4859726E-2,1.6690838E0,3.2248743E0,0E0,0E0,0E0,0E0,7.488999E-1,0E0,0E0,6.3209397E-1,0E0,0E0,0E0,0E0],"parents":[2147483647,0,0,1,1,2,2,3,3,4,4,5,5,6,6,11,11,14,14],"right_children":[2,4,6,8,10,12,14,-1,-1,-1,-1,16,-1,-1,18,-1,-1,-1,-1],"split_conditions":[1.3406908E3,1.3319521E3,1.6081835E-3,2.3840708E-3,1.653403E-3,1.5768483E-3,1.6505633E-3,-1.2091548E-1,8.787958E-2,4.9783174E-2,1.7833601E-1,1.3438136E3,-2.7118233E-1,3.1631947E-1,3.8128188E-3,-1.5296306E-1,4.4268756E-3,-4.789962E-2,5.5611063E-2],"split_indices":[0,0,2,2,2,2,2,0,0,0,0,0,0,0,2,0,0,0,0],"split_type":[0,0,0,0,0,0,0,0,0,0,0,0,0,0,0,0,0,0,0],"sum_hessian":[5.53049E1,4.5498223E0,5.0755077E1,2.0885143E0,2.4613078E0,2.7049194E1,2.3705883E1,1.0463015E0,1.0422128E0,1.3011882E0,1.1601195E0,2.555003E1,1.4991648E0,2.0415869E0,2.1664297E1,2.0702612E0,2.3479769E1,1.4572918E1,7.0913787E0],"tree_param":{"num_deleted":"0","num_feature":"3","num_nodes":"19","size_leaf_vector":"1"}},{"base_weights":[4.482568E-3,4.712051E-2,-1.3804917E-1,1.6789632E-3,6.2410206E-1,-5.936845E-1,3.3670884E-2,1.0832122E-1,-8.382863E-2,2.678399E-1,8.660075E-3,2.1692919E-2,-2.67772E-1,-4.4333488E-1,2.3862298E-1,-8.070131E-3,1.628151E-1,-2.3061962E-1,-1.5419743E-3,-1.0323953E-2,-2.1338576E-1,1.4788641E-1,-5.152135E-2],"categories":[],"categories_nodes":[],"categories_segments":[],"categories_sizes":[],"default_left":[0,0,0,0,0,0,0,0,0,0,0,0,0,0,0,0,0,0,0,0,0,0,0],"id":17,"left_children":[1,3,5,7,9,11,13,15,17,-1,-1,-1,-1,19,21,-1,-1,-1,-1,-1,-1,-1,-1],"loss_changes":[3.451042E-1,1.1429355E0,1.0436904E0,3.870441E-1,4.832729E-1,7.8811467E-1,1.1273031E0,1.1236846E0,1.266218E0,0E0,0E0,0E0,0E0,3.579412E-1,9.152894E-1,0E0,0E0,0E0,0E0,0E0,0E0,0E0,0E0],"parents":[2147483647,0,0,1,1,2,2,3,3,4,4,5,5,6,6,7,7,8,8,13,13,14,14],"right_children":[2,4,6,8,10,12,14,16,18,-1,-1,-1,-1,20,22,-1,-1,-1,-1,-1,-1,-1,-1],"split_conditions":[1.4139828E3,1.4119208E3,1.4159531E3,1.3823105E3,1.4134364E3,1.2518573E-3,1.2320288E-3,1.3797296E3,1.3827483E3,2.678399E-1,8.660075E-3,2.1692919E-2,-2.67772E-1,1.0321593E-3,1.6807338E-3,-8.070131E-3,1.628151E-1,-2.3061962E-1,-1.5419743E-3,-1.0323953E-2,-2.1338576E-1,1.4788641E-1,-5.152135E-2],"split_indices":[0,0,0,0,0,2,2,0,0,0,0,0,0,2,2,0,0,0,0,0,0,0,0],"split_type":[0,0,0,0,0,0,0,0,0,0,0,0,0,0,0,0,0,0,0,0,0,0,0],"sum_hessian":[5.4715775E1,4.2631954E1,1.2083819E1,4.0449192E1,2.1827621E0,2.6349812E0,9.448838E0,1.7881355E1,2.2567839E1,1.1594563E0,1.023306E0,1.0510553E0,1.5839258E0,2.4901485E0,6.9586897E0,1.4351879E1,3.5294757E0,1.4219513E0,2.1145887E1,1.4324731E0,1.0576755E0,4.1718235E0,2.7868662E0],"tree_param":{"num_deleted":"0","num_feature":"3","num_nodes":"23","size_leaf_vector":"1"}},{"base_weights":[-4.1458814E-4,1.0170379E-1,-2.063802E-2,-2.4190034E-1,1.5580671E-2,5.022062E-1,-1.8433416E-2,-2.4056304E-2,2.508605E-1,-1.8200906E-1,3.0458977E-3],"categories":[],"categories_nodes":[],"categories_segments":[],"categories_sizes":[],"default_left":[0,0,0,0,0,0,0,0,0,0,0],"id":18,"left_children":[1,-1,3,-1,5,7,9,-1,-1,-1,-1],"loss_changes":[3.8553518E-1,0E0,1.520411E0,0E0,8.638962E-1,7.3009706E-1,8.339358E-1,0E0,0E0,0E0,0E0],"parents":[2147483647,0,0,2,2,4,4,5,5,6,6],"right_children":[2,-1,4,-1,6,8,10,-1,-1,-1,-1],"split_conditions":[7.0549897E-4,1.0170379E-1,7.546284E-4,-2.4190034E-1,8.8645954E-4,1.3830759E3,9.4992213E-4,-2.4056304E-2,2.508605E-1,-1.8200906E-1,3.0458977E-3],"split_indices":[2,0,2,0,2,0,2,0,0,0,0],"split_type":[0,0,0,0,0,0,0,0,0,0,0],"sum_hessian":[5.4145325E1,2.1582477E0,5.1987076E1,1.3538967E0,5.0633183E1,2.4086704E0,4.822451E1,1.1548506E0,1.25382E0,1.2976497E0,4.692686E1],"tree_param":{"num_deleted":"0","num_feature":"3","num_nodes":"11","size_leaf_vector":"1"}},{"base_weights":[-2.013953E-3,1.697538E-1,-4.0991798E-2,2.2211601E-1,2.8008342E-2,-4.2260838E-1,-5.688934E-3,-1.5210566E-1,1.9824222E-1,-1.0242889E-2,-2.240529E-1,-6.383831E-2,2.8280202E-1,2.829682E-1,-2.0964647E-2,-2.394649E-3,-1.5099218E-1,1.3029027E-1,-8.345054E-2],"categories":[],"categories_nodes":[],"categories_segments":[],"categories_sizes":[],"default_left":[0,0,0,0,0,0,0,0,0,0,0,0,0,0,0,0,0,0,0],"id":19,"left_children":[1,3,5,-1,7,9,11,-1,13,-1,-1,15,17,-1,-1,-1,-1,-1,-1],"loss_changes":[3.7432468E-1,8.1584775E-1,6.1095166E-1,0E0,9.4976497E-1,4.5834398E-1,7.341392E-1,0E0,1.6224593E0,0E0,0E0,8.8805616E-1,7.450197E-1,0E0,0E0,0E0,0E0,0E0,0E0],"parents":[2147483647,0,0,1,1,2,2,4,4,5,5,6,6,8,8,11,11,12,12],"right_children":[2,4,6,-1,8,10,12,-1,14,-1,-1,16,18,-1,-1,-1,-1,-1,-1],"split_conditions":[1.3443472E3,1.1802881E-3,1.3682449E3,2.2211601E-1,1.357698E-3,1.3470364E3,3.8128188E-3,-1.5210566E-1,1.4950477E-3,-1.0242889E-2,-2.240529E-1,2.3648306E-3,1.4113088E3,2.829682E-1,-2.0964647E-2,-2.394649E-3,-1.5099218E-1,1.3029027E-1,-8.345054E-2],"split_indices":[0,2,0,0,2,0,2,0,2,0,0,2,0,0,0,0,0,0,0],"split_type":[0,0,0,0,0,0,0,0,0,0,0,0,0,0,0,0,0,0,0],"sum_hessian":[5.3870598E1,9.342941E0,4.4527653E1,1.01867E0,8.324271E0,2.841432E0,4.1686222E1,1.5317562E0,6.7925153E0,1.7955215E0,1.0459107E0,3.534139E1,6.344834E0,1.1313053E0,5.66121E0,3.2259407E1,3.0819812E0,5.1734633E0,1.1713704E0],"tree_param":{"num_deleted":"0","num_feature":"3","num_nodes":"19","size_leaf_vector":"1"}},{"base_weights":[-1.5920458E-3,2.2400545E-1,-3.042862E-2,-5.41085E-2,4.9177298E-1,-3.6270252E-1,-3.9783106E-3,1.3537359E-1,-1.2268494E-1,-1.8800145E-2,2.3551889E-1,-2.9840387E-2,-1.4057554E-1,1.8649864E-1,-3.670569E-2,-9.2380136E-2,1.1766097E-3],"categories":[],"categories_nodes":[],"categories_segments":[],"categories_sizes":[],"default_left":[0,0,0,0,0,0,0,0,0,0,0,0,0,0,0,0,0],"id":20,"left_children":[1,3,5,7,9,11,13,-1,-1,-1,-1,-1,-1,-1,15,-1,-1],"loss_changes":[3.6063394E-1,4.9455547E-1,4.3012086E-1,8.9880186E-1,5.8590084E-1,5.3996623E-2,9.7482115E-1,0E0,0E0,0E0,0E0,0E0,0E0,0E0,4.9848548E-1,0E0,0E0],"parents":[2147483647,0,0,1,1,2,2,3,3,4,4,5,5,6,6,14,14],"right_children":[2,4,6,8,10,12,14,-1,-1,-1,-1,-1,-1,-1,16,-1,-1],"split_conditions":[1.3416221E3,1.9290259E-3,1.3438136E3,1.5824775E-3,1.3229556E3,1.4350419E-3,1.3443472E3,1.3537359E-1,-1.2268494E-1,-1.8800145E-2,2.3551889E-1,-2.9840387E-2,-1.4057554E-1,1.8649864E-1,1.3797296E3,-9.2380136E-2,1.1766097E-3],"split_indices":[0,2,0,2,0,2,0,0,0,0,0,0,0,0,0,0,0],"split_type":[0,0,0,0,0,0,0,0,0,0,0,0,0,0,0,0,0],"sum_hessian":[5.3387825E1,5.2836995E0,4.8104126E1,2.983179E0,2.3005204E0,2.6095726E0,4.5494553E1,1.1185266E0,1.8646524E0,1.0679606E0,1.2325599E0,1.3048942E0,1.3046784E0,1.3669907E0,4.4127563E1,4.891672E0,3.9235893E1],"tree_param":{"num_deleted":"0","num_feature":"3","num_nodes":"17","size_leaf_vector":"1"}},{"base_weights":[2.0999652E-3,4.212458E-2,-1.3273059E-1,-2.4557479E-2,3.4833866E-1,-5.291901E-1,1.3168206E-2,4.3493178E-2,-7.1051854E-1,2.4802236E-1,7.564066E-2,1.1699505E-2,-2.3653191E-1,-3.8568735E-1,1.7987034E-1,-2.0986207E-2,6.411687E-2,-6.230541E-2,-2.6877612E-1,-5.4724813E-2,1.2236476E-1,-3.959595E-2,-1.3995658E-1,1.9810006E-1,-8.583996E-3],"categories":[],"categories_nodes":[],"categories_segments":[],"categories_sizes":[],"default_left":[0,0,0,0,0,0,0,0,0,0,0,0,0,0,0,0,0,0,0,0,0,0,0,0,0],"id":21,"left_children":[1,3,5,7,9,11,13,15,17,-1,19,-1,-1,21,23,-1,-1,-1,-1,-1,-1,-1,-1,-1,-1],"loss_changes":[2.9728624E-1,8.751089E-1,7.3657346E-1,1.7012963E0,9.361089E-1,5.341436E-1,7.4731445E-1,6.618404E-1,1.2038708E-1,0E0,5.867989E-1,0E0,0E0,6.581396E-3,8.0749273E-1,0E0,0E0,0E0,0E0,0E0,0E0,0E0,0E0,0E0,0E0],"parents":[2147483647,0,0,1,1,2,2,3,3,4,4,5,5,6,6,7,7,8,8,10,10,13,13,14,14],"right_children":[2,4,6,8,10,12,14,16,18,-1,20,-1,-1,22,24,-1,-1,-1,-1,-1,-1,-1,-1,-1,-1],"split_conditions":[1.4139828E3,1.4052606E3,1.4159531E3,1.4031598E3,1.5756292E-3,1.2518573E-3,1.2320288E-3,1.7735985E-3,1.4044939E3,2.4802236E-1,3.8128188E-3,1.1699505E-2,-2.3653191E-1,1.4174747E3,1.433403E-3,-2.0986207E-2,6.411687E-2,-6.230541E-2,-2.6877612E-1,-5.4724813E-2,1.2236476E-1,-3.959595E-2,-1.3995658E-1,1.9810006E-1,-8.583996E-3],"split_indices":[0,0,0,0,2,2,2,2,0,0,2,0,0,0,2,0,0,0,0,0,0,0,0,0,0],"split_type":[0,0,0,0,0,0,0,0,0,0,0,0,0,0,0,0,0,0,0,0,0,0,0,0,0],"sum_hessian":[5.305222E1,4.143867E1,1.1613546E1,3.4783844E1,6.654827E0,2.4174259E0,9.19612E0,3.2496616E1,2.2872264E0,1.6784902E0,4.976337E0,1.0236026E0,1.3938233E0,2.323419E0,6.872701E0,1.9854156E1,1.2642462E1,1.1873003E0,1.0999262E0,3.05468E0,1.9216571E0,1.197582E0,1.1258372E0,1.4239067E0,5.4487944E0],"tree_param":{"num_deleted":"0","num_feature":"3","num_nodes":"25","size_leaf_vector":"1"}},{"base_weights":[-1.8994645E-3,9.3193196E-2,-4.9917705E-2,-1.5422194E-2,4.323505E-1,-5.4112923E-1,8.926363E-3,8.3472855E-2,-1.5028122E-1,1.7960307E-1,2.869541E-2,-4.6940904E-2,-2.4327625E-1,3.8012424E-1,-5.3437114E-2,-2.2360805E-2,1.0424648E-1,-2.9897038E-2,1.7700611E-1,-2.551741E-1,8.149975E-3],"categories":[],"categories_nodes":[],"categories_segments":[],"categories_sizes":[],"default_left":[0,0,0,0,0,0,0,0,0,0,0,0,0,0,0,0,0,0,0,0,0],"id":22,"left_children":[1,3,5,7,9,11,13,15,-1,-1,-1,-1,-1,17,19,-1,-1,-1,-1,-1,-1],"loss_changes":[2.48127E-1,6.7858034E-1,1.0477633E0,7.5152373E-1,1.9243944E-1,2.7537668E-1,7.8899026E-1,5.739284E-1,0E0,0E0,0E0,0E0,0E0,5.522012E-1,1.9060876E0,0E0,0E0,0E0,0E0,0E0,0E0],"parents":[2147483647,0,0,1,1,2,2,3,3,4,4,5,5,6,6,7,7,13,13,14,14],"right_children":[2,4,6,8,10,12,14,16,-1,-1,-1,-1,-1,18,20,-1,-1,-1,-1,-1,-1],"split_conditions":[1.3823105E3,1.3797296E3,1.3830759E3,1.3735127E3,1.3812937E3,1.3828822E3,1.035652E-3,1.9335693E-3,-1.5028122E-1,1.7960307E-1,2.869541E-2,-4.6940904E-2,-2.4327625E-1,7.546284E-4,1.2164644E-3,-2.2360805E-2,1.0424648E-1,-2.9897038E-2,1.7700611E-1,-2.551741E-1,8.149975E-3],"split_indices":[0,0,0,0,0,0,2,2,0,0,0,0,0,2,2,0,0,0,0,0,0],"split_type":[0,0,0,0,0,0,0,0,0,0,0,0,0,0,0,0,0,0,0,0,0],"sum_hessian":[5.2321358E1,1.7239809E1,3.508155E1,1.3780971E1,3.4588387E0,2.8761744E0,3.2205376E1,1.2136873E1,1.6440973E0,1.7943625E0,1.6644762E0,1.8370032E0,1.0391711E0,3.8995135E0,2.830586E1,8.041719E0,4.0951533E0,1.3466188E0,2.5528948E0,1.7221144E0,2.6583746E1],"tree_param":{"num_deleted":"0","num_feature":"3","num_nodes":"21","size_leaf_vector":"1"}},{"base_weights":[-6.3322205E-3,9.43512E-2,-2.5435615E-2,-1.830455E-1,9.238814E-3,1.794093E-1,-2.0743072E-2,-1.6226305E-1,1.490751E-3],"categories":[],"categories_nodes":[],"categories_segments":[],"categories_sizes":[],"default_left":[0,0,0,0,0,0,0,0,0],"id":23,"left_children":[1,-1,3,-1,5,-1,7,-1,-1],"loss_changes":[3.3110753E-1,0E0,1.0331588E0,0E0,8.7436974E-1,0E0,6.369876E-1,0E0,0E0],"parents":[2147483647,0,0,2,2,4,4,6,6],"right_children":[2,-1,4,-1,6,-1,8,-1,-1],"split_conditions":[7.0549897E-4,9.43512E-2,7.966496E-4,-1.830455E-1,8.8645954E-4,1.794093E-1,9.4992213E-4,-1.6226305E-1,1.490751E-3],"split_indices":[2,0,2,0,2,0,2,0,0],"split_type":[0,0,0,0,0,0,0,0,0],"sum_hessian":[5.1717365E1,2.037352E0,4.968001E1,1.8520609E0,4.782795E1,1.3994173E0,4.642853E1,1.2432393E0,4.5185295E1],"tree_param":{"num_deleted":"0","num_feature":"3","num_nodes":"9","size_leaf_vector":"1"}},{"base_weights":[-5.873639E-3,7.517246E-2,-2.1213062E-2,-1.8772596E-1,3.9084954E-3,1.0213162E-1,-1.7927084E-2,-1.3594551E-1,1.0532431E-3],"categories":[],"categories_nodes":[],"categories_segments":[],"categories_sizes":[],"default_left":[0,0,0,0,0,0,0,0,0],"id":24,"left_children":[1,-1,3,-1,5,-1,7,-1,-1],"loss_changes":[2.1202607E-1,0E0,7.694479E-1,0E0,3.6971876E-1,0E0,4.4401214E-1,0E0,0E0],"parents":[2147483647,0,0,2,2,4,4,6,6],"right_children":[2,-1,4,-1,6,-1,8,-1,-1],"split_conditions":[7.0549897E-4,7.517246E-2,7.546284E-4,-1.8772596E-1,8.8645954E-4,1.0213162E-1,9.4992213E-4,-1.3594551E-1,1.0532431E-3],"split_indices":[2,0,2,0,2,0,2,0,0],"split_type":[0,0,0,0,0,0,0,0,0],"sum_hessian":[5.1547684E1,2.0437858E0,4.95039E1,1.0211569E0,4.8482742E1,2.0650563E0,4.6417686E1,1.2336981E0,4.5183987E1],"tree_param":{"num_deleted":"0","num_feature":"3","num_nodes":"9","size_leaf_vector":"1"}},{"base_weights":[-7.0855427E-3,1.20330835E-2,-2.0870446E-1,-1.661444E-2,3.3699095E-1,2.1900464E-2,-1.22919366E-1,2.4045656E-2,-3.4595174E-1,-1.8399026E-2,1.6365337E-1,-5.349557E-3,2.0773871E-1,-2.3295563E-1,1.6615104E-2],"categories":[],"categories_nodes":[],"categories_segments":[],"categories_sizes":[],"default_left":[0,0,0,0,0,0,0,0,0,0,0,0,0,0,0],"id":25,"left_children":[1,3,5,7,9,-1,-1,11,13,-1,-1,-1,-1,-1,-1],"loss_changes":[2.0436677E-1,4.596689E-1,2.898501E-1,6.2132204E-1,3.6557382E-1,0E0,0E0,1.1790955E0,9.2354035E-1,0E0,0E0,0E0,0E0,0E0,0E0],"parents":[2147483647,0,0,1,1,2,2,3,3,4,4,7,7,8,8],"right_children":[2,4,6,8,10,-1,-1,12,14,-1,-1,-1,-1,-1,-1],"split_conditions":[4.4772783E-3,3.8128188E-3,1.3975791E3,2.3648306E-3,1.4029126E3,2.1900464E-2,-1.22919366E-1,2.041967E-3,2.551108E-3,-1.8399026E-2,1.6365337E-1,-5.349557E-3,2.0773871E-1,-2.3295563E-1,1.6615104E-2],"split_indices":[2,2,0,2,0,0,0,2,2,0,0,0,0,0,0],"split_type":[0,0,0,0,0,0,0,0,0,0,0,0,0,0,0],"sum_hessian":[5.1366367E1,4.777627E1,3.590094E0,4.4777653E1,2.998621E0,1.7602496E0,1.8298444E0,4.0682022E1,4.095629E0,1.272925E0,1.7256958E0,3.919943E1,1.4825927E0,1.5248635E0,2.5707655E0],"tree_param":{"num_deleted":"0","num_feature":"3","num_nodes":"15","size_leaf_vector":"1"}},{"base_weights":[-4.023643E-3,1.783163E-1,-2.3296798E-2,-4.1959815E-2,1.22933075E-1,-1.2573557E-1,-1.8700119E-3,1.2456079E-1,-2.2648953E-2,2.384279E-2,-2.3259098E-2],"categories":[],"categories_nodes":[],"categories_segments":[],"categories_sizes":[],"default_left":[0,0,0,0,0,0,0,0,0,0,0],"id":26,"left_children":[1,3,5,-1,-1,-1,7,-1,9,-1,-1],"loss_changes":[1.8664083E-1,4.314049E-1,4.050228E-1,0E0,0E0,0E0,4.1148004E-1,0E0,2.5917014E-1,0E0,0E0],"parents":[2147483647,0,0,1,1,2,2,6,6,8,8],"right_children":[2,4,6,-1,-1,-1,8,-1,10,-1,-1],"split_conditions":[1.3406908E3,1.3319521E3,1.341895E3,-4.1959815E-2,1.22933075E-1,-1.2573557E-1,1.3434657E3,1.2456079E-1,1.3431362E-3,2.384279E-2,-2.3259098E-2],"split_indices":[0,0,0,0,0,0,0,0,2,0,0],"split_type":[0,0,0,0,0,0,0,0,0,0,0],"sum_hessian":[5.0927383E1,4.0795374E0,4.6847843E1,1.8845813E0,2.1949563E0,1.4526284E0,4.5395218E1,1.253486E0,4.414173E1,1.5273045E1,2.8868685E1],"tree_param":{"num_deleted":"0","num_feature":"3","num_nodes":"11","size_leaf_vector":"1"}},{"base_weights":[-1.249423E-3,-1.06590144E-1,3.2843973E-2,7.914609E-2,-4.565709E-1,4.4955072E-1,-1.7772393E-2,-8.347119E-2,1.2907973E-1,-1.7559204E-1,-2.7466308E-2,-4.141813E-2,2.0424806E-1,-1.6207263E-1,2.1942161E-2,-1.4621618E-1,5.2918646E-2,1.2369573E-1,-4.168847E-3],"categories":[],"categories_nodes":[],"categories_segments":[],"categories_sizes":[],"default_left":[0,0,0,0,0,0,0,0,0,0,0,0,0,0,0,0,0,0,0],"id":27,"left_children":[1,3,5,7,9,11,13,15,-1,-1,-1,-1,-1,-1,17,-1,-1,-1,-1],"loss_changes":[1.8978535E-1,8.758746E-1,8.5064393E-1,5.664519E-1,1.6381842E-1,6.872246E-1,7.7099776E-1,8.4045917E-1,0E0,0E0,0E0,0E0,0E0,0E0,4.9486774E-1,0E0,0E0,0E0,0E0],"parents":[2147483647,0,0,1,1,2,2,3,3,4,4,5,5,6,6,7,7,14,14],"right_children":[2,4,6,8,10,12,14,16,-1,-1,-1,-1,-1,-1,18,-1,-1,-1,-1],"split_conditions":[1.248088E-3,1.0877905E-3,1.3126966E-3,9.4992213E-4,1.2164644E-3,1.3441931E3,1.3643473E-3,1.3827483E3,1.2907973E-1,-1.7559204E-1,-2.7466308E-2,-4.141813E-2,2.0424806E-1,-1.6207263E-1,1.4350419E-3,-1.4621618E-1,5.2918646E-2,1.2369573E-1,-4.168847E-3],"split_indices":[2,2,2,2,2,0,2,0,0,0,0,0,0,0,2,0,0,0,0],"split_type":[0,0,0,0,0,0,0,0,0,0,0,0,0,0,0,0,0,0,0],"sum_hessian":[5.086927E1,1.19182415E1,3.8951027E1,8.291673E0,3.6265693E0,3.3651776E0,3.558585E1,6.1880264E0,2.103646E0,2.23486E0,1.3917092E0,1.0642502E0,2.3009274E0,1.6235757E0,3.3962276E1,2.0798087E0,4.1082177E0,1.9724072E0,3.1989868E1],"tree_param":{"num_deleted":"0","num_feature":"3","num_nodes":"19","size_leaf_vector":"1"}},{"base_weights":[-1.9242805E-3,-6.520519E-2,6.048025E-2,-9.470971E-3,-2.1035741E-1,2.2440548E-1,-2.963438E-2,7.105066E-2,-4.260317E-1,-3.8884622E-1,5.8109526E-2,1.970896E-4,2.1885249E-1,-1.8652359E-1,-1.6492616E-2,-2.0562927E-1,3.1393234E-2,1.6650149E-1,-2.508678E-3],"categories":[],"categories_nodes":[],"categories_segments":[],"categories_sizes":[],"default_left":[0,0,0,0,0,0,0,0,0,0,0,0,0,0,0,0,0,0,0],"id":28,"left_children":[1,3,5,7,-1,-1,9,11,13,15,17,-1,-1,-1,-1,-1,-1,-1,-1],"loss_changes":[2.0690906E-1,9.149688E-1,1.6576039E0,8.661072E-1,0E0,0E0,7.884771E-1,1.0071735E0,2.693398E-1,7.8894544E-1,6.784101E-1,0E0,0E0,0E0,0E0,0E0,0E0,0E0,0E0],"parents":[2147483647,0,0,1,1,2,2,3,3,6,6,7,7,8,8,9,9,10,10],"right_children":[2,4,6,8,-1,-1,10,12,14,16,18,-1,-1,-1,-1,-1,-1,-1,-1],"split_conditions":[1.6081835E-3,1.5824775E-3,1.6505633E-3,1.4165215E3,-2.1035741E-1,2.2440548E-1,1.7735985E-3,1.4161028E3,1.417443E3,1.4011348E3,1.7936797E-3,1.970896E-4,2.1885249E-1,-1.8652359E-1,-1.6492616E-2,-2.0562927E-1,3.1393234E-2,1.6650149E-1,-2.508678E-3],"split_indices":[2,2,2,0,0,0,2,0,0,0,2,0,0,0,0,0,0,0,0],"split_type":[0,0,0,0,0,0,0,0,0,0,0,0,0,0,0,0,0,0,0],"sum_hessian":[5.0396473E1,2.5000252E1,2.5396221E1,2.3919016E1,1.081235E0,2.0969098E0,2.3299313E1,2.0739487E1,3.1795294E0,3.90032E0,1.9398993E1,1.9640753E1,1.0987351E0,1.639282E0,1.5402476E0,2.1932468E0,1.7070732E0,1.4217237E0,1.7977268E1],"tree_param":{"num_deleted":"0","num_feature":"3","num_nodes":"19","size_leaf_vector":"1"}},{"base_weights":[-9.721786E-4,3.3083268E-2,-1.1730583E-1,-9.7412765E-3,1.7343417E-1,-1.8274754E-1,-1.01220105E-2,4.543874E-2,-2.0435937E-1,-6.405427E-2,6.327635E-2,4.2189687E-4,1.5204062E-1,1.535628E-1,-1.1320383E-1,1.6414364E-1,-2.3346577E-2],"categories":[],"categories_nodes":[],"categories_segments":[],"categories_sizes":[],"default_left":[0,0,0,0,0,0,0,0,0,0,0,0,0,0,0,0,0],"id":29,"left_children":[1,3,5,7,-1,-1,9,11,13,-1,15,-1,-1,-1,-1,-1,-1],"loss_changes":[2.06056E-1,9.452171E-1,6.1464596E-1,4.2065668E-1,0E0,0E0,1.7303514E-1,6.221935E-1,1.2640983E0,0E0,6.31338E-1,0E0,0E0,0E0,0E0,0E0,0E0],"parents":[2147483647,0,0,1,1,2,2,3,3,6,6,7,7,8,8,10,10],"right_children":[2,4,6,8,-1,-1,10,12,14,-1,16,-1,-1,-1,-1,-1,-1],"split_conditions":[1.4139828E3,1.4119208E3,1.4146182E3,1.4025852E3,1.7343417E-1,-1.8274754E-1,1.1985139E-3,1.4015444E3,1.2716538E-3,-6.405427E-2,1.3126966E-3,4.2189687E-4,1.5204062E-1,1.535628E-1,-1.1320383E-1,1.6414364E-1,-2.3346577E-2],"split_indices":[0,0,0,0,0,0,2,0,2,0,2,0,0,0,0,0,0],"split_type":[0,0,0,0,0,0,0,0,0,0,0,0,0,0,0,0,0],"sum_hessian":[5.0031208E1,3.9255264E1,1.0775946E1,3.7306145E1,1.9491186E0,1.090138E0,9.685807E0,2.9662474E1,7.64367E0,2.0622325E0,7.623575E0,2.79938E1,1.6686745E0,1.1058705E0,6.5378E0,1.0714576E0,6.5521173E0],"tree_param":{"num_deleted":"0","num_feature":"3","num_nodes":"17","size_leaf_vector":"1"}},{"base_weights":[4.6016034E-3,-6.174986E-2,7.203822E-2,-7.3402645E-3,-1.7298727E-1,2.4175622E-1,-6.2010144E-3,2.1855628E-1,-1.1624161E-1,-3.0496714E-1,6.517775E-2,-5.1346526E-2,1.0041367E-1,-2.4131908E-1,-5.437323E-3,-1.6640532E-1,2.9656496E-2,1.2625352E-1,1.8146811E-3],"categories":[],"categories_nodes":[],"categories_segments":[],"categories_sizes":[],"default_left":[0,0,0,0,0,0,0,0,0,0,0,0,0,0,0,0,0,0,0],"id":30,"left_children":[1,3,5,7,-1,-1,9,11,13,15,17,-1,-1,-1,-1,-1,-1,-1,-1],"loss_changes":[2.3190854E-1,7.286695E-1,1.4789472E0,6.3240516E-1,0E0,0E0,5.357753E-1,4.3631738E-1,1.1535959E0,5.4302526E-1,4.2542624E-1,0E0,0E0,0E0,0E0,0E0,0E0,0E0,0E0],"parents":[2147483647,0,0,1,1,2,2,3,3,6,6,7,7,8,8,9,9,10,10],"right_children":[2,4,6,8,-1,-1,10,12,14,16,18,-1,-1,-1,-1,-1,-1,-1,-1],"split_conditions":[1.6137284E-3,1.5824775E-3,1.6505633E-3,1.3823105E3,-1.7298727E-1,2.4175622E-1,1.7735985E-3,9.4992213E-4,1.3827483E3,1.4011348E3,1.8098733E-3,-5.1346526E-2,1.0041367E-1,-2.4131908E-1,-5.437323E-3,-1.6640532E-1,2.9656496E-2,1.2625352E-1,1.8146811E-3],"split_indices":[2,2,2,0,0,0,2,2,0,0,2,0,0,0,0,0,0,0,0],"split_type":[0,0,0,0,0,0,0,0,0,0,0,0,0,0,0,0,0,0,0],"sum_hessian":[4.9834568E1,2.5161894E1,2.4672674E1,2.367435E1,1.487542E0,1.4811268E0,2.3191547E1,7.3731456E0,1.6301205E1,3.8411872E0,1.935036E1,1.5842803E0,5.7888656E0,1.135928E0,1.51652775E1,2.1426313E0,1.6985557E0,1.886343E0,1.7464018E1],"tree_param":{"num_deleted":"0","num_feature":"3","num_nodes":"19","size_leaf_vector":"1"}},{"base_weights":[4.892915E-4,-4.0771965E-2,9.981827E-2,-2.6627248E-3,-2.0185836E-1,4.5149276E-1,-4.7973786E-2,2.5888951E-2,-1.2984453E-1,1.825372E-1,2.4295913E-2,-1.9973129E-1,1.0415064E-1,-2.5912616E-3,1.333361E-1,1.9273646E-1,-8.27822E-3],"categories":[],"categories_nodes":[],"categories_segments":[],"categories_sizes":[],"default_left":[0,0,0,0,0,0,0,0,0,0,0,0,0,0,0,0,0],"id":31,"left_children":[1,3,5,7,-1,9,11,13,-1,-1,-1,-1,15,-1,-1,-1,-1],"loss_changes":[2.1031278E-1,8.7173784E-1,8.043417E-1,4.4358245E-1,0E0,2.1544975E-1,1.1507847E0,4.945796E-1,0E0,0E0,0E0,0E0,7.338699E-1,0E0,0E0,0E0,0E0],"parents":[2147483647,0,0,1,1,2,2,3,3,5,5,6,6,7,7,12,12],"right_children":[2,4,6,8,-1,10,12,14,-1,-1,-1,-1,16,-1,-1,-1,-1],"split_conditions":[1.9692678E-3,1.9001008E-3,2.3648306E-3,1.4175261E3,-2.0185836E-1,1.4125328E3,2.551108E-3,1.8114457E-3,-1.2984453E-1,1.825372E-1,2.4295913E-2,-1.9973129E-1,2.8232199E-3,-2.5912616E-3,1.333361E-1,1.9273646E-1,-8.27822E-3],"split_indices":[2,2,2,0,0,0,2,2,0,0,0,0,2,0,0,0,0],"split_type":[0,0,0,0,0,0,0,0,0,0,0,0,0,0,0,0,0],"sum_hessian":[4.932234E1,3.526343E1,1.4058904E1,3.420537E1,1.0580608E0,3.5519767E0,1.0506927E1,3.2957603E1,1.2477704E0,2.0438645E0,1.5081122E0,1.4088625E0,9.098064E0,3.1350899E1,1.6067035E0,1.0266588E0,8.071405E0],"tree_param":{"num_deleted":"0","num_feature":"3","num_nodes":"17","size_leaf_vector":"1"}},{"base_weights":[-1.4359462E-5,6.921047E-2,-1.4435269E-2,-1.4740986E-1,1.2338411E-2,1.5475567E-1,-1.3891028E-2,-6.0041416E-2,6.771926E-3],"categories":[],"categories_nodes":[],"categories_segments":[],"categories_sizes":[],"default_left":[0,0,0,0,0,0,0,0,0],"id":32,"left_children":[1,-1,3,-1,5,-1,7,-1,-1],"loss_changes":[1.6927825E-1,0E0,6.175043E-1,0E0,6.188348E-1,0E0,3.100938E-1,0E0,0E0],"parents":[2147483647,0,0,2,2,4,4,6,6],"right_children":[2,-1,4,-1,6,-1,8,-1,-1],"split_conditions":[7.0549897E-4,6.921047E-2,7.966496E-4,-1.4740986E-1,8.8645954E-4,1.5475567E-1,1.248088E-3,-6.0041416E-2,6.771926E-3],"split_indices":[2,0,2,0,2,0,2,0,0],"split_type":[0,0,0,0,0,0,0,0,0],"sum_hessian":[4.887718E1,1.9930614E0,4.6884117E1,1.5697055E0,4.531441E1,1.3194103E0,4.3995E1,6.4683104E0,3.7526688E1],"tree_param":{"num_deleted":"0","num_feature":"3","num_nodes":"9","size_leaf_vector":"1"}},{"base_weights":[4.1034637E-4,-3.911646E-2,7.712728E-2,2.3118388E-2,-1.9334735E-1,3.7849003E-1,-7.42192E-2,-5.317362E-2,1.9503665E-1,2.2547872E-1,9.496951E-2,-2.902844E-1,7.7802874E-2,-7.808875E-4,-1.5244512E-1,2.858851E-1,-9.820269E-3,-8.421955E-2,1.21907376E-1,2.7945895E-2,-1.3008647E-1,-2.6623784E-2,1.3009012E-1],"categories":[],"categories_nodes":[],"categories_segments":[],"categories_sizes":[],"default_left":[0,0,0,0,0,0,0,0,0,0,0,0,0,0,0,0,0,0,0,0,0,0,0],"id":33,"left_children":[1,3,5,7,-1,9,11,13,15,-1,17,19,21,-1,-1,-1,-1,-1,-1,-1,-1,-1,-1],"loss_changes":[1.537375E-1,1.2757565E0,8.142958E-1,4.2105797E-1,0E0,5.5556124E-1,4.269547E-1,5.1575625E-1,1.7296262E0,0E0,6.419618E-1,3.3145505E-1,5.1347876E-1,0E0,0E0,0E0,0E0,0E0,0E0,0E0,0E0,0E0,0E0],"parents":[2147483647,0,0,1,1,2,2,3,3,5,5,6,6,7,7,8,8,10,10,11,11,12,12],"right_children":[2,4,6,8,-1,10,12,14,16,-1,18,20,22,-1,-1,-1,-1,-1,-1,-1,-1,-1,-1],"split_conditions":[1.4052606E3,1.4031598E3,1.4134364E3,1.3899502E3,-1.9334735E-1,1.7031739E-3,1.4162104E3,1.3840598E3,1.3986428E3,2.2547872E-1,3.8128188E-3,1.3126966E-3,1.8728052E-3,-7.808875E-4,-1.5244512E-1,2.858851E-1,-9.820269E-3,-8.421955E-2,1.21907376E-1,2.7945895E-2,-1.3008647E-1,-2.6623784E-2,1.3009012E-1],"split_indices":[0,0,0,0,0,2,0,0,0,0,2,2,2,0,0,0,0,0,0,0,0,0,0],"split_type":[0,0,0,0,0,0,0,0,0,0,0,0,0,0,0,0,0,0,0,0,0,0,0],"sum_hessian":[4.8703793E1,3.2466316E1,1.6237476E1,3.0311945E1,2.1543732E0,4.926653E0,1.1310823E1,2.1473413E1,8.8385315E0,1.4143999E0,3.512253E0,4.2958083E0,7.0150146E0,2.0230513E1,1.2429001E0,1.3066868E0,7.531845E0,1.6363677E0,1.8758852E0,1.264171E0,3.0316374E0,5.2897224E0,1.7252923E0],"tree_param":{"num_deleted":"0","num_feature":"3","num_nodes":"23","size_leaf_vector":"1"}},{"base_weights":[4.6710162E-3,-7.561946E-2,1.7892478E-2,2.0777133E-1,-1.5672052E-2,-3.460919E-2,3.0837327E-1,-1.4780816E-1,2.0259045E-2,1.8896694E-1,1.5408069E-2,6.9484025E-2,-6.3156313E-3],"categories":[],"categories_nodes":[],"categories_segments":[],"categories_sizes":[],"default_left":[0,0,0,0,0,0,0,0,0,0,0,0,0],"id":34,"left_children":[1,-1,3,5,7,-1,9,-1,11,-1,-1,-1,-1],"loss_changes":[1.7142649E-1,0E0,3.072519E-1,2.7077916E-1,7.206685E-1,0E0,4.4607818E-1,0E0,3.4993583E-1,0E0,0E0,0E0,0E0],"parents":[2147483647,0,0,2,2,3,3,4,4,6,6,8,8],"right_children":[2,-1,4,6,8,-1,10,-1,12,-1,-1,-1,-1],"split_conditions":[6.781038E-4,-7.561946E-2,1.0877905E-3,1.3806923E3,1.2164644E-3,-3.460919E-2,1.3832126E3,-1.4780816E-1,1.3431362E-3,1.8896694E-1,1.5408069E-2,6.9484025E-2,-6.3156313E-3],"split_indices":[2,0,2,0,2,0,0,0,2,0,0,0,0],"split_type":[0,0,0,0,0,0,0,0,0,0,0,0,0],"sum_hessian":[4.8173725E1,1.4746171E0,4.669911E1,6.2352567E0,4.0463852E1,1.4455112E0,4.7897453E0,1.9439362E0,3.8519917E1,1.48333E0,3.3064156E0,5.5448794E0,3.2975037E1],"tree_param":{"num_deleted":"0","num_feature":"3","num_nodes":"13","size_leaf_vector":"1"}},{"base_weights":[3.2644742E-3,1.9507341E-2,-1.628296E-1,-1.0373954E-2,3.3804098E-1,-1.3582155E-1,5.4562517E-2,9.942187E-3,-1.0286317E-1,-2.0164663E-2,1.6564912E-1,8.983168E-2,-5.0574344E-2,-5.552266E-3,1.7239869E-1],"categories":[],"categories_nodes":[],"categories_segments":[],"categories_sizes":[],"default_left":[0,0,0,0,0,0,0,0,0,0,0,0,0,0,0],"id":35,"left_children":[1,3,5,7,9,-1,11,13,-1,-1,-1,-1,-1,-1,-1],"loss_changes":[1.3525067E-1,4.3646562E-1,3.0629456E-1,2.908861E-1,3.7822E-1,0E0,2.387672E-1,6.7059803E-1,0E0,0E0,0E0,0E0,0E0,0E0,0E0],"parents":[2147483647,0,0,1,1,2,2,3,3,4,4,6,6,7,7],"right_children":[2,4,6,8,10,-1,12,14,-1,-1,-1,-1,-1,-1,-1],"split_conditions":[4.4772783E-3,3.8128188E-3,4.6061757E-3,2.8232199E-3,1.4029126E3,-1.3582155E-1,4.730268E-3,2.551108E-3,-1.0286317E-1,-2.0164663E-2,1.6564912E-1,8.983168E-2,-5.0574344E-2,-5.552266E-3,1.7239869E-1],"split_indices":[2,2,2,2,0,0,2,2,0,0,0,0,0,0,0],"split_type":[0,0,0,0,0,0,0,0,0,0,0,0,0,0,0],"sum_hessian":[4.7955498E1,4.448748E1,3.4680192E0,4.1556538E1,2.9309416E0,1.0222208E0,2.4457984E0,4.0077854E1,1.4786812E0,1.2504269E0,1.6805147E0,1.0030962E0,1.4427022E0,3.907647E1,1.001386E0],"tree_param":{"num_deleted":"0","num_feature":"3","num_nodes":"15","size_leaf_vector":"1"}},{"base_weights":[4.832517E-3,-6.112386E-2,1.5634364E-2,1.9297652E-1,-1.0042314E-2,-8.250153E-2,3.5927618E-1,-2.3126382E-1,2.1354606E-2,2.695569E-3,1.5838227E-1,8.310765E-2,-1.5309592E-1,1.407575E-1,-1.2128376E-3],"categories":[],"categories_nodes":[],"categories_segments":[],"categories_sizes":[],"default_left":[0,0,0,0,0,0,0,0,0,0,0,0,0,0,0],"id":36,"left_children":[1,-1,3,5,7,-1,9,11,13,-1,-1,-1,-1,-1,-1],"loss_changes":[1.131315E-1,0E0,2.1743533E-1,5.684678E-1,2.986724E-1,0E0,2.8394032E-1,8.9888966E-1,4.335314E-1,0E0,0E0,0E0,0E0,0E0,0E0],"parents":[2147483647,0,0,2,2,3,3,4,4,6,6,7,7,8,8],"right_children":[2,-1,4,6,8,-1,10,12,14,-1,-1,-1,-1,-1,-1],"split_conditions":[6.781038E-4,-6.112386E-2,1.035652E-3,1.3806923E3,1.248088E-3,-8.250153E-2,7.881124E-4,1.3823105E3,1.2716538E-3,2.695569E-3,1.5838227E-1,8.310765E-2,-1.5309592E-1,1.407575E-1,-1.2128376E-3],"split_indices":[2,0,2,0,2,0,2,0,2,0,0,0,0,0,0],"split_type":[0,0,0,0,0,0,0,0,0,0,0,0,0,0,0],"sum_hessian":[4.7799095E1,1.4740328E0,4.632506E1,5.0348716E0,4.1290188E1,1.1486889E0,3.8861825E0,4.340609E0,3.694958E1,1.605362E0,2.2808204E0,1.5410051E0,2.7996042E0,1.0452092E0,3.590437E1],"tree_param":{"num_deleted":"0","num_feature":"3","num_nodes":"15","size_leaf_vector":"1"}},{"base_weights":[5.266891E-3,6.432678E-2,-8.189104E-3,-1.3729823E-1,1.6570222E-2,1.24227256E-1,-3.51692E-3,-1.1236796E-1,4.459087E-3],"categories":[],"categories_nodes":[],"categories_segments":[],"categories_sizes":[],"default_left":[0,0,0,0,0,0,0,0,0],"id":37,"left_children":[1,-1,3,-1,5,-1,7,-1,-1],"loss_changes":[1.3836657E-1,0E0,5.2583295E-1,0E0,3.616046E-1,0E0,3.0513388E-1,0E0,0E0],"parents":[2147483647,0,0,2,2,4,4,6,6],"right_children":[2,-1,4,-1,6,-1,8,-1,-1],"split_conditions":[7.0549897E-4,6.432678E-2,7.966496E-4,-1.3729823E-1,8.8645954E-4,1.24227256E-1,9.4992213E-4,-1.1236796E-1,4.459087E-3],"split_indices":[2,0,2,0,2,0,2,0,0],"split_type":[0,0,0,0,0,0,0,0,0],"sum_hessian":[4.753992E1,1.9708322E0,4.5569088E1,1.4662867E0,4.4102802E1,1.177889E0,4.292491E1,1.1113963E0,4.1813515E1],"tree_param":{"num_deleted":"0","num_feature":"3","num_nodes":"9","size_leaf_vector":"1"}},{"base_weights":[2.4599638E-3,-3.2247473E-2,7.0712276E-2,2.357753E-2,-1.7446043E-1,2.942425E-1,-6.4832844E-2,-4.2721935E-2,1.7218323E-1,2.0001628E-1,8.9081116E-2,-1.0903462E-1,3.8000472E-2,1.1249612E-2,-7.3953085E-2,2.5386098E-1,-7.696196E-3,-2.7362367E-2,8.7640904E-2,9.7420104E-2,-2.6312293E-2],"categories":[],"categories_nodes":[],"categories_segments":[],"categories_sizes":[],"default_left":[0,0,0,0,0,0,0,0,0,0,0,0,0,0,0,0,0,0,0,0,0],"id":38,"left_children":[1,3,5,7,-1,9,11,13,15,-1,17,-1,19,-1,-1,-1,-1,-1,-1,-1,-1],"loss_changes":[1.16918325E-1,1.0184809E0,5.22836E-1,3.0987838E-1,0E0,4.340263E-1,3.5680854E-1,3.694511E-1,1.31137E0,0E0,2.2132087E-1,0E0,3.6059418E-1,0E0,0E0,0E0,0E0,0E0,0E0,0E0,0E0],"parents":[2147483647,0,0,1,1,2,2,3,3,5,5,6,6,7,7,8,8,10,10,12,12],"right_children":[2,4,6,8,-1,10,12,14,16,-1,18,-1,20,-1,-1,-1,-1,-1,-1,-1,-1],"split_conditions":[1.4052606E3,1.4031598E3,1.4139828E3,1.3899502E3,-1.7446043E-1,1.5756292E-3,1.4159531E3,1.3823105E3,1.3986428E3,2.0001628E-1,3.8128188E-3,-1.0903462E-1,1.4162333E3,1.1249612E-2,-7.3953085E-2,2.5386098E-1,-7.696196E-3,-2.7362367E-2,8.7640904E-2,9.7420104E-2,-2.6312293E-2],"split_indices":[0,0,0,0,0,2,0,0,0,0,2,0,0,0,0,0,0,0,0,0,0],"split_type":[0,0,0,0,0,0,0,0,0,0,0,0,0,0,0,0,0,0,0,0,0],"sum_hessian":[4.7393703E1,3.1767118E1,1.5626584E1,2.9705204E1,2.0619144E0,5.4568205E0,1.0169764E1,2.103368E1,8.671524E0,1.1390653E0,4.317755E0,1.9558517E0,8.213912E0,1.5678055E1,5.355625E0,1.2240355E0,7.447489E0,2.5788574E0,1.7388978E0,2.0209658E0,6.192946E0],"tree_param":{"num_deleted":"0","num_feature":"3","num_nodes":"21","size_leaf_vector":"1"}},{"base_weights":[7.008949E-3,2.4936836E-2,-1.7701192E-1,-8.989881E-3,2.3664276E-1,1.4475661E-2,-1.0035763E-1,2.4214532E-2,-1.6810685E-1,4.469937E-1,-2.0102188E-2,-2.660814E-3,1.7677043E-1,4.8794686E-3,2.238612E-1,8.24619E-2,-8.2838945E-2],"categories":[],"categories_nodes":[],"categories_segments":[],"categories_sizes":[],"default_left":[0,0,0,0,0,0,0,0,0,0,0,0,0,0,0,0,0],"id":39,"left_children":[1,3,5,7,9,-1,-1,11,-1,13,15,-1,-1,-1,-1,-1,-1],"loss_changes":[1.6214655E-1,3.2133734E-1,1.7112212E-1,7.3247534E-1,3.4247756E-1,0E0,0E0,7.154866E-1,0E0,4.3084627E-1,3.5818696E-1,0E0,0E0,0E0,0E0,0E0,0E0],"parents":[2147483647,0,0,1,1,2,2,3,3,4,4,7,7,9,9,10,10],"right_children":[2,4,6,8,10,-1,-1,12,-1,14,16,-1,-1,-1,-1,-1,-1],"split_conditions":[4.4772783E-3,2.551108E-3,1.3975791E3,2.3648306E-3,1.4025852E3,1.4475661E-2,-1.0035763E-1,2.041967E-3,-1.6810685E-1,1.3899502E3,3.861082E-3,-2.660814E-3,1.7677043E-1,4.8794686E-3,2.238612E-1,8.24619E-2,-8.2838945E-2],"split_indices":[2,2,0,2,0,0,0,2,0,0,2,0,0,0,0,0,0],"split_type":[0,0,0,0,0,0,0,0,0,0,0,0,0,0,0,0,0],"sum_hessian":[4.681067E1,4.344282E1,3.367846E0,3.826779E1,5.1750298E0,1.6713163E0,1.6965299E0,3.6995903E1,1.271887E0,2.437217E0,2.737813E0,3.5879345E1,1.1165587E0,1.4312365E0,1.0059804E0,1.2379436E0,1.4998693E0],"tree_param":{"num_deleted":"0","num_feature":"3","num_nodes":"17","size_leaf_vector":"1"}},{"base_weights":[8.43998E-3,-9.661134E-2,4.092583E-2,2.8529849E-2,-1.257386E-1,1.3132332E-1,1.3697735E-2,1.6414917E-1,-1.2197846E-1,1.7792767E-1,-2.1290027E-2,-1.9928184E-1,1.8476598E-2,-2.0249732E-2,1.377269E-1,-1.4809771E-1,8.046086E-3],"categories":[],"categories_nodes":[],"categories_segments":[],"categories_sizes":[],"default_left":[0,0,0,0,0,0,0,0,0,0,0,0,0,0,0,0,0],"id":40,"left_children":[1,3,5,7,-1,-1,9,-1,11,13,15,-1,-1,-1,-1,-1,-1],"loss_changes":[1.661766E-1,4.771188E-1,3.9388293E-1,7.8797936E-1,0E0,0E0,2.0872568E-1,0E0,8.352132E-1,4.7059762E-1,7.0172286E-1,0E0,0E0,0E0,0E0,0E0,0E0],"parents":[2147483647,0,0,1,1,2,2,3,3,6,6,8,8,9,9,10,10],"right_children":[2,4,6,8,-1,-1,10,-1,12,14,16,-1,-1,-1,-1,-1,-1],"split_conditions":[1.3682449E3,1.3443472E3,1.3787737E3,1.2484961E-3,-1.257386E-1,1.3132332E-1,1.035652E-3,1.6414917E-1,1.357698E-3,7.966496E-4,1.2164644E-3,-1.9928184E-1,1.8476598E-2,-2.0249732E-2,1.377269E-1,-1.4809771E-1,8.046086E-3],"split_indices":[0,0,0,2,0,0,2,0,2,2,2,0,0,0,0,0,0],"split_type":[0,0,0,0,0,0,0,0,0,0,0,0,0,0,0,0,0],"sum_hessian":[4.6535255E1,1.0525241E1,3.6010014E1,8.239674E0,2.2855673E0,1.3441159E0,3.4665897E1,1.2605448E0,6.979129E0,5.3707194E0,2.929518E1,1.1027352E0,5.876394E0,3.273342E0,2.0973773E0,1.8518537E0,2.7443327E1],"tree_param":{"num_deleted":"0","num_feature":"3","num_nodes":"17","size_leaf_vector":"1"}},{"base_weights":[5.2135526E-3,6.623566E-2,-8.802712E-3,-1.1141586E-1,1.06514925E-2,9.852224E-2,-4.8659113E-3,-1.0334074E-1,3.5829486E-3],"categories":[],"categories_nodes":[],"categories_segments":[],"categories_sizes":[],"default_left":[0,0,0,0,0,0,0,0,0],"id":41,"left_children":[1,-1,3,-1,5,-1,7,-1,-1],"loss_changes":[1.447539E-1,0E0,3.237788E-1,0E0,2.1857041E-1,0E0,2.4923632E-1,0E0,0E0],"parents":[2147483647,0,0,2,2,4,4,6,6],"right_children":[2,-1,4,-1,6,-1,8,-1,-1],"split_conditions":[7.0549897E-4,6.623566E-2,7.966496E-4,-1.1141586E-1,8.8645954E-4,9.852224E-2,9.4992213E-4,-1.0334074E-1,3.5829486E-3],"split_indices":[2,0,2,0,2,0,2,0,0],"split_type":[0,0,0,0,0,0,0,0,0],"sum_hessian":[4.6264515E1,1.9238199E0,4.4340694E1,1.336729E0,4.3003963E1,1.063451E0,4.1940514E1,1.0586649E0,4.0881847E1],"tree_param":{"num_deleted":"0","num_feature":"3","num_nodes":"9","size_leaf_vector":"1"}},{"base_weights":[2.624667E-3,8.391567E-2,-3.440838E-2,-1.251582E-1,1.6137525E-1,-1.5719932E-1,4.4332926E-5,1.5657859E-2,4.9030134E-1,1.3178158E-1,-3.250077E-2,2.581809E-2,-8.5201085E-2,1.9561903E-1,4.925053E-2,-1.01130806E-1,4.922271E-3],"categories":[],"categories_nodes":[],"categories_segments":[],"categories_sizes":[],"default_left":[0,0,0,0,0,0,0,0,0,0,0,0,0,0,0,0,0],"id":42,"left_children":[1,3,5,-1,7,-1,9,11,13,-1,15,-1,-1,-1,-1,-1,-1],"loss_changes":[1.4483488E-1,6.5143484E-1,5.583982E-1,0E0,6.5158784E-1,0E0,4.706611E-1,2.4732855E-1,1.13985896E-1,0E0,4.6222302E-1,0E0,0E0,0E0,0E0,0E0,0E0],"parents":[2147483647,0,0,1,1,2,2,4,4,6,6,7,7,8,8,10,10],"right_children":[2,4,6,-1,8,-1,10,12,14,-1,16,-1,-1,-1,-1,-1,-1],"split_conditions":[1.3431362E-3,1.3437302E3,1.3800298E-3,-1.251582E-1,1.248088E-3,-1.5719932E-1,1.4350419E-3,1.4172262E3,1.4009314E3,1.3178158E-1,1.5216673E-3,2.581809E-2,-8.5201085E-2,1.9561903E-1,4.925053E-2,-1.01130806E-1,4.922271E-3],"split_indices":[2,0,2,0,2,0,2,0,0,0,2,0,0,0,0,0,0],"split_type":[0,0,0,0,0,0,0,0,0,0,0,0,0,0,0,0,0],"sum_hessian":[4.615152E1,1.4048274E1,3.2103245E1,1.2936033E0,1.2754671E1,1.1764302E0,3.0926817E1,9.564922E0,3.189749E0,1.2713529E0,2.9655464E1,8.3224535E0,1.2424682E0,1.4641504E0,1.7255986E0,3.2876132E0,2.636785E1],"tree_param":{"num_deleted":"0","num_feature":"3","num_nodes":"17","size_leaf_vector":"1"}},{"base_weights":[6.507051E-4,-6.709277E-2,4.4360947E-2,1.9164156E-2,-4.5105603E-1,3.7086257E-1,-1.8323643E-2,-8.3981864E-2,3.5910192E-1,-1.7004174E-1,-4.9068656E-2,6.986497E-2,2.1865094E-1,-2.0127334E-1,6.2395196E-2,7.03735E-3,-1.060171E-1,1.4176628E-1,2.8871277E-2,1.237627E-1,-1.1190643E-1,4.0701035E-2,-2.5261986E-1,1.2135384E-1,-2.3145128E-2],"categories":[],"categories_nodes":[],"categories_segments":[],"categories_sizes":[],"default_left":[0,0,0,0,0,0,0,0,0,0,0,0,0,0,0,0,0,0,0,0,0,0,0,0,0],"id":43,"left_children":[1,3,5,7,9,11,13,15,17,-1,-1,19,-1,21,23,-1,-1,-1,-1,-1,-1,-1,-1,-1,-1],"loss_changes":[1.421296E-1,6.322273E-1,6.037202E-1,6.0286945E-1,2.3583055E-2,4.6031654E-1,3.8796383E-1,3.9447033E-1,7.357061E-2,0E0,0E0,7.129189E-1,0E0,1.8456306E0,9.0974253E-1,0E0,0E0,0E0,0E0,0E0,0E0,0E0,0E0,0E0,0E0],"parents":[2147483647,0,0,1,1,2,2,3,3,4,4,5,5,6,6,7,7,8,8,11,11,13,13,14,14],"right_children":[2,4,6,8,10,12,14,16,18,-1,-1,20,-1,22,24,-1,-1,-1,-1,-1,-1,-1,-1,-1,-1],"split_conditions":[1.3830759E3,1.3823105E3,1.3986428E3,1.3797296E3,1.3827483E3,1.3899502E3,1.4459222E-3,1.3470364E3,1.3812937E3,-1.7004174E-1,-4.9068656E-2,1.3840598E3,2.1865094E-1,1.333441E-3,1.6505633E-3,7.03735E-3,-1.060171E-1,1.4176628E-1,2.8871277E-2,1.237627E-1,-1.1190643E-1,4.0701035E-2,-2.5261986E-1,1.2135384E-1,-2.3145128E-2],"split_indices":[0,0,0,0,0,0,2,0,0,0,0,0,0,2,2,0,0,0,0,0,0,0,0,0,0],"split_type":[0,0,0,0,0,0,0,0,0,0,0,0,0,0,0,0,0,0,0,0,0,0,0,0,0],"sum_hessian":[4.599404E1,1.7828281E1,2.816576E1,1.5333676E1,2.4946048E0,3.7446887E0,2.4421072E1,1.23418E1,2.9918761E0,1.085874E0,1.408731E0,2.683484E0,1.0612046E0,7.018987E0,1.7402084E1,9.475795E0,2.866005E0,1.5326657E0,1.4592104E0,1.5515261E0,1.131958E0,5.1167574E0,1.9022298E0,4.491556E0,1.2910528E1],"tree_param":{"num_deleted":"0","num_feature":"3","num_nodes":"25","size_leaf_vector":"1"}},{"base_weights":[-3.5428978E-4,-3.425655E-2,8.271855E-2,3.3719435E-3,-1.3956322E-1,3.5236582E-1,-3.335823E-2,3.7913233E-2,-2.5196972E-1,1.50978E-1,1.2002797E-2,-1.4699633E-1,7.683483E-2,-1.5516078E-2,8.7931015E-2,2.415533E-2,-1.7715211E-1,1.2673602E-1,-1.7763006E-2],"categories":[],"categories_nodes":[],"categories_segments":[],"categories_sizes":[],"default_left":[0,0,0,0,0,0,0,0,0,0,0,0,0,0,0,0,0,0,0],"id":44,"left_children":[1,3,5,7,-1,9,11,13,15,-1,-1,-1,17,-1,-1,-1,-1,-1,-1],"loss_changes":[1.3376504E-1,5.484251E-1,4.426488E-1,2.9185542E-1,0E0,1.7920458E-1,5.678612E-1,6.799344E-1,4.9155915E-1,0E0,0E0,0E0,4.6480203E-1,0E0,0E0,0E0,0E0,0E0,0E0],"parents":[2147483647,0,0,1,1,2,2,3,3,5,5,6,6,7,7,8,8,12,12],"right_children":[2,4,6,8,-1,10,12,14,16,-1,-1,-1,18,-1,-1,-1,-1,-1,-1],"split_conditions":[1.9692678E-3,1.8212845E-3,2.3648306E-3,1.4165215E3,-1.3956322E-1,1.4125328E3,2.551108E-3,1.4052606E3,1.2799075E-3,1.50978E-1,1.2002797E-2,-1.4699633E-1,3.4240661E-3,-1.5516078E-2,8.7931015E-2,2.415533E-2,-1.7715211E-1,1.2673602E-1,-1.7763006E-2],"split_indices":[2,2,2,0,0,0,2,0,2,0,0,0,2,0,0,0,0,0,0],"split_type":[0,0,0,0,0,0,0,0,0,0,0,0,0,0,0,0,0,0,0],"sum_hessian":[4.548963E1,3.272294E1,1.2766691E1,3.1007698E1,1.715242E0,3.2293227E0,9.537369E0,2.8063E1,2.944697E0,1.7653433E0,1.4639792E0,1.1840692E0,8.353299E0,2.135837E1,6.70463E0,1.8701385E0,1.0745583E0,1.7647488E0,6.5885506E0],"tree_param":{"num_deleted":"0","num_feature":"3","num_nodes":"19","size_leaf_vector":"1"}},{"base_weights":[-2.3553849E-3,-1.13847636E-1,1.9957388E-2,9.656765E-2,-4.2405686E-1,1.4206919E-1,-6.921104E-3,-1.1217009E-1,1.24962136E-1,-3.7244216E-2,-1.6041726E-1,-1.1114309E-1,2.483825E-2,-1.0926893E-1,4.0406317E-2,1.3169952E-1,-1.1472063E-3],"categories":[],"categories_nodes":[],"categories_segments":[],"categories_sizes":[],"default_left":[0,0,0,0,0,0,0,0,0,0,0,0,0,0,0,0,0],"id":45,"left_children":[1,3,5,7,9,-1,11,13,-1,-1,-1,-1,15,-1,-1,-1,-1],"loss_changes":[1.1677746E-1,5.5168927E-1,4.8126164E-1,4.125199E-1,4.4732988E-2,0E0,4.4791993E-1,3.0431813E-1,0E0,0E0,0E0,0E0,4.2761353E-1,0E0,0E0,0E0,0E0],"parents":[2147483647,0,0,1,1,2,2,3,3,4,4,6,6,7,7,12,12],"right_children":[2,4,6,8,10,-1,12,14,-1,-1,-1,-1,16,-1,-1,-1,-1],"split_conditions":[1.3438136E3,1.3416221E3,1.3443472E3,1.3398561E3,1.4350419E-3,1.4206919E-1,1.3682449E3,1.7939826E-3,1.24962136E-1,-3.7244216E-2,-1.6041726E-1,-1.1114309E-1,1.3787737E3,-1.0926893E-1,4.0406317E-2,1.3169952E-1,-1.1472063E-3],"split_indices":[0,0,0,0,2,0,0,2,0,0,0,0,0,0,0,0,0],"split_type":[0,0,0,0,0,0,0,0,0,0,0,0,0,0,0,0,0],"sum_hessian":[4.5028584E1,6.824689E0,3.8203896E1,4.4767833E0,2.3479056E0,1.2074832E0,3.699641E1,3.1023622E0,1.3744211E0,1.2047713E0,1.1431344E0,2.1154373E0,3.4880974E1,1.2997546E0,1.8026074E0,1.3310796E0,3.3549892E1],"tree_param":{"num_deleted":"0","num_feature":"3","num_nodes":"17","size_leaf_vector":"1"}},{"base_weights":[-1.1747642E-3,-1.3960504E-2,5.7776403E-2,8.778623E-3,-1.0955851E-1,-1.6034197E-2,1.1068786E-1,4.902202E-3,-7.5147115E-2],"categories":[],"categories_nodes":[],"categories_segments":[],"categories_sizes":[],"default_left":[0,0,0,0,0,0,0,0,0],"id":46,"left_children":[1,3,-1,5,-1,7,-1,-1,-1],"loss_changes":[1.16334446E-1,3.5435045E-1,0E0,3.8367864E-1,0E0,3.1153178E-1,0E0,0E0,0E0],"parents":[2147483647,0,0,1,1,3,3,5,5],"right_children":[2,4,-1,6,-1,8,-1,-1,-1],"split_conditions":[1.4178134E3,1.4170892E3,5.7776403E-2,1.4163314E3,-1.0955851E-1,1.4140223E3,1.1068786E-1,4.902202E-3,-7.5147115E-2],"split_indices":[0,0,0,0,0,0,0,0,0],"split_type":[0,0,0,0,0,0,0,0,0],"sum_hessian":[4.4873013E1,4.2965797E1,1.9072149E0,4.1269024E1,1.6967744E0,3.950314E1,1.7658837E0,3.5527615E1,3.9755251E0],"tree_param":{"num_deleted":"0","num_feature":"3","num_nodes":"9","size_leaf_vector":"1"}},{"base_weights":[-1.1344905E-3,5.6097806E-2,-1.3380496E-2,-1.02486424E-1,4.3130564E-3,1.89757E-1,-1.7985772E-2,-1.763966E-3,1.01383805E-1,-1.2291318E-1,2.9820509E-3],"categories":[],"categories_nodes":[],"categories_segments":[],"categories_sizes":[],"default_left":[0,0,0,0,0,0,0,0,0,0,0],"id":47,"left_children":[1,-1,3,-1,5,7,9,-1,-1,-1,-1],"loss_changes":[1.0813439E-1,0E0,2.56911E-1,0E0,1.8006866E-1,1.3743706E-1,4.3123043E-1,0E0,0E0,0E0,0E0],"parents":[2147483647,0,0,2,2,4,4,5,5,6,6],"right_children":[2,-1,4,-1,6,8,10,-1,-1,-1,-1],"split_conditions":[7.0549897E-4,5.6097806E-2,7.966496E-4,-1.02486424E-1,1.0877905E-3,9.4992213E-4,1.2164644E-3,-1.763966E-3,1.01383805E-1,-1.2291318E-1,2.9820509E-3],"split_indices":[2,0,2,0,2,2,2,0,0,0,0],"split_type":[0,0,0,0,0,0,0,0,0,0,0],"sum_hessian":[4.4851223E1,1.869021E0,4.29822E1,1.2620308E0,4.172017E1,3.6721022E0,3.804807E1,1.996575E0,1.6755271E0,1.6221666E0,3.64259E1],"tree_param":{"num_deleted":"0","num_feature":"3","num_nodes":"11","size_leaf_vector":"1"}},{"base_weights":[-2.39558E-3,-6.934297E-2,9.942044E-3,9.041121E-2,-1.254069E-2,-7.752015E-2,2.9429276E-3,7.65624E-2,-5.584288E-3],"categories":[],"categories_nodes":[],"categories_segments":[],"categories_sizes":[],"default_left":[0,0,0,0,0,0,0,0,0],"id":48,"left_children":[1,-1,3,-1,5,-1,7,-1,-1],"loss_changes":[1.3101871E-1,0E0,2.936099E-1,0E0,1.6074716E-1,0E0,2.25133E-1,0E0,0E0],"parents":[2147483647,0,0,2,2,4,4,6,6],"right_children":[2,-1,4,-1,6,-1,8,-1,-1],"split_conditions":[6.781038E-4,-6.934297E-2,8.6215243E-4,9.041121E-2,9.4992213E-4,-7.752015E-2,1.1738174E-3,7.65624E-2,-5.584288E-3],"split_indices":[2,0,2,0,2,0,2,0,0],"split_type":[0,0,0,0,0,0,0,0,0],"sum_hessian":[4.4610012E1,1.375347E0,4.3234665E1,2.2080927E0,4.102657E1,1.5011777E0,3.9525394E1,2.258424E0,3.7266968E1],"tree_param":{"num_deleted":"0","num_feature":"3","num_nodes":"9","size_leaf_vector":"1"}},{"base_weights":[-1.3580117E-3,-5.9198607E-2,3.546903E-2,1.6834132E-2,-3.94388E-1,3.1766635E-1,-1.7673254E-2,2.2574787E-1,-1.3404982E-1,-3.6134686E-2,-1.5482844E-1,-1.5910102E-2,1.6004746E-1,-1.6860227E-1,4.7365706E-2,-6.574609E-3,2.3338574E-1,-1.1107972E-1,9.791892E-3,3.3148415E-2,-2.1132313E-1,1.0645792E-1,-1.0519024E-2],"categories":[],"categories_nodes":[],"categories_segments":[],"categories_sizes":[],"default_left":[0,0,0,0,0,0,0,0,0,0,0,0,0,0,0,0,0,0,0,0,0,0,0],"id":49,"left_children":[1,3,5,7,9,11,13,15,17,-1,-1,-1,-1,19,21,-1,-1,-1,-1,-1,-1,-1,-1],"loss_changes":[9.919489E-2,4.681002E-1,4.3265158E-1,5.2572304E-1,5.082047E-2,3.9354742E-1,2.525119E-1,9.6946144E-1,3.9614695E-1,0E0,0E0,0E0,0E0,1.2324616E0,4.7347456E-1,0E0,0E0,0E0,0E0,0E0,0E0,0E0,0E0],"parents":[2147483647,0,0,1,1,2,2,3,3,4,4,5,5,6,6,7,7,8,8,13,13,14,14],"right_children":[2,4,6,8,10,12,14,16,18,-1,-1,-1,-1,20,22,-1,-1,-1,-1,-1,-1,-1,-1],"split_conditions":[1.3830759E3,1.3823105E3,1.3986428E3,1.4950477E-3,6.97984E-4,1.1695011E-3,1.4459222E-3,1.357698E-3,1.7778522E-3,-3.6134686E-2,-1.5482844E-1,-1.5910102E-2,1.6004746E-1,1.333441E-3,1.5768483E-3,-6.574609E-3,2.3338574E-1,-1.1107972E-1,9.791892E-3,3.3148415E-2,-2.1132313E-1,1.0645792E-1,-1.0519024E-2],"split_indices":[0,0,0,2,2,2,2,2,2,0,0,0,0,2,2,0,0,0,0,0,0,0,0],"split_type":[0,0,0,0,0,0,0,0,0,0,0,0,0,0,0,0,0,0,0,0,0,0,0],"sum_hessian":[4.4582497E1,1.71069E1,2.7475595E1,1.4718096E1,2.3888044E0,3.5653162E0,2.3910278E1,5.964075E0,8.754021E0,1.346885E0,1.0419195E0,1.5894908E0,1.9758254E0,6.721072E0,1.7189207E1,4.7803884E0,1.1836867E0,3.1164308E0,5.63759E0,4.9410887E0,1.7799834E0,2.935093E0,1.4254113E1],"tree_param":{"num_deleted":"0","num_feature":"3","num_nodes":"23","size_leaf_vector":"1"}}]},"name":"gbtree"},"learner_model_param":{"base_score":"[5.151515E-1]","boost_from_average":"1","num_class":"0","num_feature":"3","num_target":"1"},"objective":{"name":"binary:logistic","reg_loss_param":{"scale_pos_weight":"1"}}},"version":[3,1,3]}